-1.2255231372583886,-0.6195075321702973,0.5393534486911777,0.11184105586368909,1.8849187976160628,-1.0493473784512612,-0.7567728840323796,-2.1629377764563458,-0.6135824602668882,-2.278563381016348,-1.3535647460164375,-0.7859394949326609,-1.3818738901317624,-0.615717318814964,-0.4610329805148332,-0.2169726569692927,-1.522013848635507,-1.5402093043807819,0.0067821795726651524,-1.7155745634606476,-0.6158170688046116,-1.6497177511777024,-0.21000133284537587,-1.1568602161227646,-0.687324890250416,0.2591841164243799,-1.6813569605845569,-0.3572935570006955,-0.7132181583980044,-0.47215403663818434,-1.3432690435992762,-0.793656728177581,-1.4453339135426917,0.24926633281796462,0.06880369156836899,-2.87415131293795,0.5924822866675592,-1.9021782027509218,-0.7361188839596214,-0.8758633180749977,-1.5753992429898782,-0.7458625925255363,-1.619870183155363,-0.07123335314621043,2.6309527311393857,-1.3516994572373238,-1.9977440671528812,-0.2865505314707488,0.08813712005348756,0.6306951543534993,-1.4954558913911338,-0.03871547998924239,-0.4830957043476946,0.5801667730565445,-0.7774978016762409,-1.82055917049642,-2.094449453375032,-0.2308842506002478,-1.3403722926289297,-1.4060959925199892,-0.9316275127101723,-1.8157894348625712,-0.960141848972293,-0.09657727116502389,0.29368519535673565,-2.3261434143181168,-0.9218516758449011,0.08131004317619846,0.5346574064888974,-1.3444989711844062,-0.9180681560384041,0.47340210275905115,-1.2646293815621041,-0.7290076365569086,-0.9286106645432393,-0.6474970701597722,-1.5007640496716823,-2.333802592518016,-3.4876253755225366,-0.4874989071609573,-0.7420831811285441,0.23569118763362673,0.20149727407348916,-1.9699968810553803,-1.2735932179965574,-1.494642897509925,0.8437338083575976,-0.04422667357057536,-1.4919117757803266,-2.702969010189827,-0.7120761575767748,0.6109853019609588,-1.0576524160856977,-0.24034815563744508,-0.26973751812557184,0.5144979044552518,-0.615196083380219,0.15897184244175483,-1.293709902095898,-1.2433443652154839
-1.4998251881635327,-0.5132604372386705,0.12516100811948783,-1.193222902462234,-0.5526009298483652,0.07517095963884664,-1.5590283578578905,-1.0464150460797073,1.043990012125133,-0.8365392761956306,-1.500589508271761,-0.5748484970868675,-0.8267762772350377,0.04369982852164078,-0.1713674933308247,-0.4763274462368726,0.015467936669765378,0.5278676231236966,-0.9875579847825595,0.39543926813251673,-0.7507627318867627,-1.195621932040914,-0.04836777781877837,-0.5733796341827729,0.4657124329521196,0.8732293136741658,-2.8718969806060275,-2.0938985023782344,-1.286791518607521,-0.903996251898746,0.2388859794134221,1.001743158792343,-0.6882778588258868,-0.33691219980886156,-0.03335501753886012,-1.4859779735158276,-0.27632352071169586,-0.0942008770338167,0.2549490082629837,0.1298231515853564,-1.8943265579899118,-1.2358931579960115,-1.7642863865979155,-1.3833384599558214,-1.2921074139522315,-3.016449190265749,0.3955791119767572,-0.6385766408956313,0.09246012811473242,-0.47741387954161923,1.4351301470500955,-1.3318583154265953,-0.5365263516080322,-0.7634180784857694,-1.7430429342934672,-0.2304491458036565,-2.854690266130725,0.769211131691301,-0.752334823874397,0.6520348928827517,-0.4871231311063545,-0.4742358405448712,0.05929371878742685,-2.151503138555357,1.7855113847209507,0.22222172759111836,0.4941267172071323,-1.8705357130382516,-0.006171311252759578,-0.6681579952441453,-1.4574397881950705,-1.8749464592964094,-0.7335310138744856,-0.8715292246125632,-0.8197672255107072,-1.222628400876444,-1.4585396713544225,-0.39559478435594997,-2.7974366361030416,-1.2980099584414078,1.1091553548314135,-0.6866527092088982,-1.5539623445071131,-2.137486589889244,1.5983337331177168,-0.19845630264688296,0.09971311169807277,-1.1222488513242046,-1.3072773239832125,-3.1443478706102876,-1.7951241397580657,0.7298480905862619,-1.5837291959518378,-0.7197565104509197,-1.1405508713388854,-0.684024655776006,-0.8706083211033384,-0.43623481709115786,-0.9493953569380567,0.33557801198227466
-1.7762153968119183,-1.933483990573263,0.06390687980006417,0.16039044733290952,-0.386733110238038,0.2086234964265762,-0.5932164712468038,-0.8440399808025053,-1.130084730610648,-0.6787931898778635,-1.4713428297586597,-1.3861776449659515,-1.4356472678196366,-1.465500650599686,0.9858297414981145,-0.1697950389601766,0.10205936598583938,-1.4941332807649623,-1.0525918867393562,0.7051202776490266,-0.40041875023748935,-1.6182879195589313,-0.3670939223752127,-0.7676236080051979,-0.19178052903786094,0.4723297579089363,0.710249843468711,-0.2920937066774556,-0.9711900350354951,0.4933799625883344,1.0506039985023512,-1.9760394653198594,-0.9884356170530668,-0.06019434539441375,-1.241622362185482,-1.6000714878071247,-1.144821834338793,-0.5450233692773241,-0.49100848804364355,-0.24202556575341683,-1.7945216950831528,0.08484298454915239,-1.9490004908972502,-0.36203814230115144,1.4928776510346782,-1.2284190334133884,1.2788303527636753,-0.08132509891360573,-1.0882353665965,0.14018687935314697,-0.5119692324957016,-2.2388233079254105,-1.517639904167186,-0.6126053310097503,-0.4048374680226295,-1.1162818808677601,-1.666384102375341,-0.9609840115536455,-2.054109899180039,1.629033357231814,-0.14116466990035972,-0.06020760714548935,-0.6074190100868385,0.43471303289257035,-1.4114131735547564,-0.7553517327048326,-0.41567981372586954,-1.325569556577183,-1.0025937866093364,0.93843000659797,-0.5406785585733338,-0.5033946405268315,-1.3270241133341312,-1.1720080513444604,-1.2697502677062293,-2.93142670872482,0.6454162350003627,-0.3895792704168715,-2.6914580578572336,1.2913490297583634,0.8800801093717436,0.22443606711809827,-0.19488037778168832,-1.3510331776045013,1.1419120955374458,-0.7258680992754203,0.8849532112931819,0.5968291566518871,-1.9311254540313822,-2.509339606810176,-1.7562985743251922,-1.292402486795903,-1.2654151249351175,-1.463735059889888,-1.1116480815218526,0.056789804070847195,0.336974085852787,-2.872631347779461,-0.7061124009263131,-0.9839565715543961
-1.8429815391279882,-1.5329956634955215,0.26234447282931694,-1.5182539534629913,-1.11365925630754,-0.4456940317607845,-0.984070097984752,-1.2409975481357243,1.6316056753373211,-0.5676258798495469,0.27871521740562266,-0.9485247782581877,0.36286744140572413,-0.7743495342792855,-1.7046338682621434,-0.10762591342118377,1.0936410711193325,0.24284595267356723,-0.5604186135274565,-0.0821118771037328,-1.0669500862976835,0.19816153972322992,-0.2994658709920921,-0.3660879657096457,-1.3264125847247523,0.6305669129107014,-1.5232488968533895,-1.7432700972601929,-1.3898820379187806,-0.35378145618291484,0.5674978856812787,-0.06333908168524469,-0.9734653323697242,0.08175908552414941,-0.8939587645103004,-0.5366514825226525,0.012837209129396796,-0.7959175836482248,-1.3993902833474368,-0.718728106056591,-1.4795293227303516,-1.1619687548978022,-1.2677446985843521,-0.8623658705473768,-0.02230753760316037,-0.7221758791501715,-2.162261472556783,-0.3305965464360096,0.19523583113487164,-1.5198123488619235,-1.829320316426114,-0.61096201564758,-1.4573008242343215,1.3690490986288335,-0.7549020348677002,-1.8391096139012353,-2.3714735539575678,-1.4915680894340422,-2.417544164374143,1.7063908114567155,-0.008081924164445664,-0.7659436765365948,0.027851118209732323,-1.1264871683678042,0.09161522174221698,0.895469363196943,-1.0621702858997333,-1.6108223916692948,-1.4194265143539995,0.055163449964409174,-1.1495137103357391,-0.25494244923077825,-0.9634365761035009,-0.6171928720226569,-0.9105729520433472,-0.1753145407588118,-0.30606223794347137,0.4208545661024947,-3.9479540560761897,0.35243701326444765,-0.9041071897719826,-1.1778833238762425,-1.1319560074026684,-1.0481420350012,0.5615086839951832,1.0179745646386082,0.16092373208032495,-0.8484147297859288,-1.4869085829057764,-2.8280219999686422,-1.8404033787970304,-1.9323336710093257,-1.8783794715141,-1.1096787456417299,-0.4580871143166749,0.5304252107514734,0.17798331662463784,-0.9655410326123658,-0.15257777863859862,-1.1196149824443786
-2.046443103096044,-1.070578830782067,-1.843336186223088,-0.06177682303296483,1.1852909235389344,0.04644239231651577,-2.1345880017022787,-1.8546730217453815,0.07485524446223546,-1.5367639999233982,-1.6528052600526835,-0.8507140158534032,0.2588325076458147,-0.7315235661172377,-1.0862119680798799,-0.9101865763751062,-1.2048384265328593,0.24665872835167213,-2.5254702135257743,-1.297952093786403,0.12401760850022316,-1.514558927382938,-1.320404749399319,-0.25316381471223626,-0.9175616162534674,0.6390099835931854,0.13096809467656723,-0.057742777082234686,-0.5174581454005334,-0.18576272296279916,-0.017613578979002724,0.0322406311695802,-1.7660894014921682,0.5236024244050613,-0.05552794509580371,-1.0409845416072248,-0.14634891489086813,-1.5199285310928006,-0.16568334300255724,0.2936607565828264,-1.2412841754054287,-1.161915979710789,-1.0924128798157404,-0.745589743348469,1.2739652928195724,-0.28245607568985825,0.9793759054450242,-0.0249491545635704,-0.9740588247489876,2.1140804301741434,-0.1520056755183509,-1.4772527229894519,-1.8486758810950916,0.6361321387216154,-1.2600116989077628,-0.2882023812683372,-1.8426039547628412,-1.567300439106444,-1.8205760230190489,-0.49204785934908124,-1.1127725713665348,-0.014345131411021861,-0.6757289213513724,0.19378160527157406,-0.14959408860688758,0.05276462624063976,-2.3746129021390434,-0.8191110211353675,0.057032651168892425,-0.24441608219406488,-1.4768806056357102,-1.259496714961582,-1.3921551375745063,0.35623201442264674,-1.226186762324623,-2.5123585562366175,-0.702486554712789,1.2336108426460388,-2.8653346515168487,-1.5806985077518767,-0.8827100245602267,-0.06635053072114128,0.7846207715485054,-0.9925371841697571,-0.6309909818086821,-0.5509281811717806,-0.5919002477964321,-0.11257902401841383,-2.145600189818044,-2.6939806008983855,-1.2642845340034687,0.946249253357148,-0.9203342574033234,-1.0268891138426992,-0.267994820711572,0.7392751530505695,-0.25355491160877164,-1.151559638093286,0.2941933123729781,-1.800199817914214
-1.9797504408436775,-0.00586619433155826,-0.07974425132114764,0.7381460187647241,-1.0890263394500608,0.8855180841192072,-0.9165153800800298,-1.6844763893667158,-0.32145876717429317,-2.0152127480206223,-1.7701604339108128,-0.8227567144397195,0.15338285554113065,0.30980701365474395,-1.5779554214431706,0.4326346387983201,1.4713310764401346,-1.3648561361305551,-2.08860798236703,0.12044092327934332,-1.01913155634143,-0.8870889710143698,-0.4653233411849141,-0.4068902788027956,-0.7078542783082089,0.17766034552508797,-0.5633516013457353,-0.03340240153863445,-1.519779546255843,-0.2946566136984854,-0.5262256753636338,-0.06165701552247138,-1.6751867009168118,0.5319541260572704,-0.7723296713332416,-2.0423302225758913,-0.6948213645047817,0.6445235944172434,-1.0854093528054334,-0.4443532833693393,-0.8807300580191086,-0.33655870969295476,-1.3941584027575464,-0.6633314653815846,-1.0757683148128647,-0.13699900750128563,-0.40822621041322815,-0.6012402849348086,-0.8374865945595904,-0.7093800515461304,-0.3122305374323317,-0.5597586033792438,-0.6463994647916038,0.49785558497776483,-1.1766620147149807,0.3661191312277875,-1.5466746465152377,1.233917586443427,-0.471127372918268,-0.7308980513554728,-0.9650124293884109,-0.022193675479362143,0.07950461231532531,-2.1166084883794856,-0.8939703046980174,0.6928645824983504,-0.5712632466736163,-0.6922917223467367,-0.9460345860177063,-0.04755257088571691,-1.360813500487457,-0.07117570343309756,-1.2445086365954878,-1.9280873652069574,-1.4541721545932194,-0.8275109614835969,-1.784692472309274,-0.5035617934425569,-3.0464574877907333,0.796730378739088,1.2186133028633601,1.1919004109459947,-1.3545948589016823,-1.8291399681569405,-0.2155970369191188,0.003463135459064657,-0.4414491990491095,0.18676145679823541,-1.3083689686971463,-3.0659877863903926,-1.1511088911753695,0.05416241304079061,-0.9848973907947066,-0.8832911868599308,-1.9303689307448189,-0.5269902711580745,-0.15192425778501897,-1.4181324320685944,-0.8908562478228697,-1.2582537871923536
-1.172811702810737,-2.7706274631543737,-1.2847264599873802,0.1901825339710376,-2.3076929717287697,-0.7710931222294508,-1.0860436282164536,-1.661390814331119,2.9665488247790557,-0.9450550882928496,0.1213132528823291,-1.2101434033847036,2.061770203507772,-0.2962444916817006,-0.011260985722915099,-0.6347335565974791,-0.556744751652962,-1.0577500760552974,-0.8840465901678045,1.610310596615072,-1.733258392571244,-1.6405681310451585,-0.9451873541776665,-0.0941987851609335,-1.7081672717430534,-1.1491944169968007,-0.32951047869906264,-2.078067293523189,-0.7090807621345836,0.2062679462791206,-1.6807176317152175,0.013079855534364327,-1.6450011036788996,0.9272931976315768,-1.4082137467265994,-0.694012906885575,-1.4122906733380043,0.1441367686694837,-1.350778116016118,-0.6077057886742256,-0.9731913020285655,-0.08486430314191105,-0.9158407555635151,-1.2124789169603722,0.6295583611243994,-0.2637564324768629,0.6877197660855012,-1.2000964570495418,0.4665349785524133,-0.15212672286438922,-0.06818116406035571,0.4706470827016941,-1.140874647351426,-0.7035069976543459,-0.19595412154346886,-0.3092670187714333,-3.3545274770442766,0.405336181037557,-0.7341665996790765,-0.5225468174343989,-2.174407158003719,-2.174123865139772,1.2446256668805855,-1.1703698651396695,0.13611026226529954,-1.9487063442953607,-0.9923386731483393,-1.2157921405828858,-0.9945351068302766,-1.2571075264591858,-0.6845079482576916,-2.3531481628943776,-0.29738921579911887,-1.0439520547541115,-1.482657068414377,-1.864766083252837,1.011883193367621,-1.6147382573343017,-2.724109559302466,0.05077486868765603,-0.5551581201223331,-0.043517395587128874,-0.016918675513985078,-2.2944723027929292,-0.07705854739390018,-2.2222062340914905,0.40283655684737285,-0.4125139220262229,-0.7409582474534918,-2.9611380778538003,-2.1803907253990986,-0.904400984045083,-1.1146604367971318,-0.4344429867284178,-0.8048233001304488,0.7903497449017638,-0.8443511783488653,-0.770827640193414,-0.1688949095544573,-0.9323400804553905
-2.550886467557085,-1.1647767003666258,-0.2553376061659297,0.00042965815352595874,-1.6740968156162166,-1.1066992778398148,-1.8781065899611649,-2.0174538314771127,1.0708990968922327,-1.6545526403818462,-0.3032012046590572,-1.0447349572798712,-1.4397936934520073,-0.6674656546144121,0.23926342369502795,-1.174489174905931,-0.7353436240779798,0.8978188952120763,-0.8427635336042162,-0.8443584761466664,-0.9324860561556796,0.08592872270577673,-1.7615076065592028,-1.1657469233953872,-0.6066988823867534,-1.3067659546072148,-1.1446069402740349,-0.13774718440353187,-1.206152457363193,1.170327011564955,0.6728879484168538,0.9282110228169822,-1.6371002155451868,-0.921607122219738,-0.41517722647873556,-0.22824910901701723,-2.5859851271266336,0.2974186341556979,0.05374570946091497,-2.152624071800213,-1.4795433781845948,-1.1117567094622942,-2.3588255915717538,-1.8131197053178951,0.5163246853679537,0.3501304010510391,-0.9333577535913795,0.6954058583827749,-1.8755558997668587,-1.290197819492671,-1.2680941812823232,0.050285527305843944,-2.28907803805862,0.06857678429372192,-0.034617835196340936,-1.274560856321054,-2.3246927231876864,-1.328013320897969,-0.5355514265280207,-2.1937147665171577,-0.18256947511644475,-2.957182995158597,0.9154872094458713,-0.6250559777650936,-0.6099585318112601,1.0786383558217083,-0.0771975187022019,-1.104776615540352,0.22051786020727582,-0.5182515719625086,-1.5951161096678173,-0.6043118087869561,-0.7351623970247994,-0.562981602114752,-1.3768247315759172,-1.314830260686208,0.5025444007729422,-0.32323145716145674,-2.5975339474955814,0.28131716836862797,-1.6933660046243526,0.2434140981870006,-1.14701446484346,-0.4626884227361302,0.7506088373977429,-0.32363787696616286,0.7238469772114262,-0.568133150884508,-2.2379797450366405,-2.346667557065806,-1.659926384491176,-0.17700887032987983,-0.5117656211086534,-1.7447618162817127,-0.041824937127162294,-1.2601591868909712,-0.4549410053405549,-1.0014413325025595,0.8150943862377618,-0.7883959100238511
-1.6742663737838979,-0.7860364754733656,-1.9717169302218018,-0.2917289904661822,-0.28816181059111834,-0.8478767417186768,0.30898911018050357,-1.0040975196135566,-0.8034982043711902,-2.2840787734388917,-2.151322832026035,-1.2064544699145514,-2.1718751243132464,-2.629834933839281,0.44575178081686484,-0.7669363937513126,1.078392581522845,-1.1929026879378934,-1.4040714582980907,0.01267464888590813,0.011608875765064435,-1.3206519922369095,-0.5414993600923738,-1.4969950837904102,-1.0304326811859652,-0.5562400500550205,0.10869472809058137,-1.1557569851636065,-0.20675989307580384,-1.7335494242420513,-0.4121145946992394,-1.5510719437566132,-0.43055733961049286,-2.11534839337057,-0.3405602683953089,-1.114267454574462,0.06691331872595924,0.07800603697136231,0.4100151873619191,-0.3050203547901747,-1.6371151880243808,-0.10190404860600419,-2.3195444041171984,-1.8134612670755008,-2.1950241875397625,0.49934349737028527,1.3122108831358716,-2.4645173163654643,0.8073274826714316,0.22585908503293495,-1.1778172919610546,-1.7013407449386238,-1.0374969121070812,-0.5547148135005222,-2.171467444579145,-1.5490921057354732,-1.6318250818248448,0.13600604913167602,-1.5855652252326338,-0.6861485560463464,0.10879313652610961,0.20231355264646378,0.7546776913923248,0.13476723430471527,0.13908828282844726,0.13861858737414134,0.6510134321201728,-1.1668057549502715,-0.9394555082040938,-0.5870837534270562,-0.5633403471464171,-1.5980241069158276,-1.8089686148708684,-1.1866852780781383,-1.0270672663382012,-0.18268866104901518,0.3142614831807472,-0.9625462975582901,-2.986812675152885,-0.05639026165988492,0.3928857386516189,0.43071777999449457,-0.9386762478978268,-1.11628077681341,-0.763192794748426,0.08089888512586503,-0.7408816409596141,0.08001658671500118,-2.29907012800743,-2.3650207326359394,-1.6219288174749162,0.0016740080045259363,-0.9008665992448759,-1.0586377213635034,0.7239861359664213,0.3262189037587423,-0.31921923115489914,0.1903199909568778,-1.0382253947873543,0.14590354290994983
-1.4329551268485743,-1.3426048156365313,0.015168593147846696,0.2603921975596288,-0.6693401884918163,1.287863288406375,-1.772759238478921,-2.244102695672462,-1.8841256771535997,-2.137821129891006,-0.7107508836138771,-0.6187259786775837,-0.41947907690666403,-0.5779772260760443,0.3944314201241952,0.8304666371225273,0.6062741360924147,-0.7335123335731927,-0.668980595200531,-0.5806559896495938,-1.4084177070068646,-1.4492346415899755,-1.4231783301903886,-0.6550755368937069,-0.344131670112391,-2.575947842655599,-0.6559863769444513,-1.045715942421192,-0.17697522324814968,1.1876757570590897,-0.3364601562042037,-0.9414439920108962,-0.8804705920513513,-0.5208862665477384,-0.11265412796789488,-0.47749572908339105,0.12801650513799046,-0.8393004049224442,-0.3774603984758097,0.09705217607316784,-1.7664529791097694,-0.07441861613893526,-2.4436598598671173,-1.0097352483437179,-1.0968667875686853,-2.128605185510022,-1.2948001291309759,-1.8218979250070622,0.23731325485362698,-1.0902581113589593,0.3667651270823755,-0.12944708046369086,-1.1160483941157069,-1.2165863825271177,-0.7324324536026953,-1.7169117139285213,-2.2112698317659243,-0.8717896747590135,-0.35941209561215687,-0.7776162380823238,1.4348975858981996,-0.2689783028239877,-0.458691512411237,-1.8625634064042396,-0.5666021720712731,-2.0789890861297917,-0.3310126694813026,-1.4293133629655275,0.08774967338835513,-0.2910079636892183,-0.9783387568375206,-0.2979428008470903,-1.525236403236745,-0.6340737254923342,-1.2435447970263271,-1.5564144394905601,-0.2153588899054302,0.005638178164461176,-2.8299462563643627,1.2985894355644925,-1.2200362895151828,-1.3832531277058764,-0.3236802990750756,-1.3429099851366815,-1.0206061051539574,0.2017004386389034,0.9290158532401935,-1.0859399312603093,-1.357313109915477,-2.4139741224316045,-1.7220196566301902,-1.3760815066573735,-0.6419714831954405,-1.0023828278433837,-1.5359449486070678,-0.2361115550834917,1.123114454313424,0.19971198230924214,0.6170423992144758,-2.080360401892448
-1.278896053952406,0.14795524569132845,-0.4843389775836959,0.826871142935461,-1.7787240107551534,-2.2643940724128977,-1.5140749352665932,-2.5755924670759582,-0.5495586496010643,-0.9472839770245338,-2.2508449810352316,-0.9607027749209203,0.8053421290796504,-0.4176029165231542,-0.5441893886751901,-1.0499867436533954,0.2824602110568899,-1.0891467786168667,-0.9829133650437111,-0.16741469303530235,-0.9051125454320268,-0.21684974720932196,-0.9196488058222684,-0.2467611729278351,0.5337860270842887,-1.4074375534905101,-0.34981360914071463,0.26541122215708124,-1.6934592679123808,-0.78166776775291,-2.4703608761888165,1.450091690072935,-3.470911580526874,-0.5716677378230755,-1.0997272260596753,-0.3399298966249818,0.022615934730185874,-0.9322039253406631,-0.6460640723838529,0.3559255603335689,-0.7009985442715206,-0.8461787048199119,-0.6275798132197509,-0.6412767009286794,-1.5109734680763336,-0.2619832067770926,-0.8044883034693754,-0.8034145095672555,-0.5776465267159333,-1.0008817443320428,-0.03701051996003446,0.18456443508697778,-1.3779606773358888,1.026201089003412,-1.275532670259387,-1.6592529424374214,-2.4806014968467127,-0.3179623910352805,-1.8591631929138,0.23739105961693446,0.7686956020958253,-0.8216715395414326,0.09187406465335379,-0.518851702998316,-1.6652704271552485,-1.3412884201351332,-0.47670333891453387,0.559931133729507,-0.052901714050086084,-0.7846589463066882,-0.26345278970987884,-1.3762807223908,-1.8858050978280367,-0.6190414321496601,-1.0593516549465096,-0.7241874556295106,-1.1654829867115133,0.06267526092855459,-3.0041512614043726,-0.9505241164750676,-1.188229544425939,-0.7885797702091423,-1.501760872408132,-0.8358572255967123,0.5626243739806773,0.2886530209020386,-0.8476843772544801,-1.5827277328732297,-1.5885029076970467,-2.851355458564038,-1.6022774333112675,0.5313979360606774,-1.2043653906600449,-0.8690150038469954,0.006310265280824042,-0.02510622454820509,-0.7814705613184676,0.658157153686073,-0.666361041160967,-1.6618296011363816
-1.7814353779360033,-2.3090198073973176,-0.4215599273812458,0.11965111851107886,0.43268749250014416,-0.8060264676267156,-0.5403972741240484,-1.1050488688367968,-0.5191292128353195,-0.7769400403990224,-1.8267204167229323,-0.6437723068192763,-0.05420884749483915,-2.338097229937758,-0.48491501759240746,1.9021860256318155,-1.5555236574722084,-1.4412426618628147,-0.933810855451993,-0.11282075325177673,-0.4567299295894076,-0.23848956415267508,0.12109490169709018,-2.461700411241893,-0.30054163808344014,-1.4154678194059702,-0.966012941836037,1.207184431318199,0.4216722066110081,-0.4553915441368324,-2.8112748173978352,-1.6740464327602949,-1.619419691347921,-1.9716787307818826,0.6854261397591574,-1.1560159133516692,-0.28876791152507986,0.2337126379636425,-0.1583840999039226,0.09546412618935983,-1.2119848157196202,0.2822930575497087,-1.3109585531475108,-0.8082323626417125,-1.4413997226125064,-2.6151570028823943,2.0393358832669186,-0.479467815068341,0.24112261288282455,-1.2177686313941876,-1.8257322199586474,-1.4868668502181899,-2.4035885697881336,1.2583498393193995,-1.4037319222876592,-0.35595277254315755,-1.8227033831643602,0.9775857201622753,-1.9302647882200474,0.6156206734805931,0.2803436911878602,-1.7634315343933515,-0.8832050713117491,1.0868771223696896,-0.7833971281031535,-0.8854756398656423,-1.051815623774597,-1.681500579293566,-1.4996561327847748,-0.7711083032870303,-1.1009466124373029,0.052249655006863044,-1.289902821324402,-1.053489766709754,-0.9537696708612042,-0.912140895760557,-0.8311636613501489,-0.33270102694285153,-3.1628837190474397,0.05621197817070842,-0.4593598156432991,-0.6241591619037297,-0.004680852066473258,-0.47609014657331106,-0.3953690441164547,-0.8476226001519338,-0.30774343439077423,0.5514917286504344,-1.4380928965383062,-2.8800039075535557,-1.779672766248476,0.23846250406288894,-1.4616952105085808,-1.713866822372819,0.24352537774694022,-0.8736495788539412,0.3481273060052119,-0.7991258178916254,-1.2355987844464398,-0.16001282716128093
-1.281399050107839,0.1089660496009747,-0.06434592649119651,0.986955243854398,-1.135884394833049,-1.5897639304176558,-0.5209484205396846,-1.057756514417783,-1.0528715725157693,-1.204636922284653,-1.1374935017417256,-1.6551113915469249,0.46227107984289006,0.15295158211023785,-1.1246862049536903,-1.1291680733511735,-0.14086856661375408,-1.2098992444203989,0.10594059311303955,-1.9152530185967505,-1.2344085635317192,-1.7693752384406065,-0.6816467822204745,-0.5516487187612207,0.03058749133067662,-0.625158512827703,-0.22250883652260342,0.9333153997423558,-0.1651230538979464,-0.3212613551635359,1.2938561745980834,1.2603230123813212,-1.7486343755310745,1.6368458868484292,0.08934051799403714,-1.7709451450311469,-0.5725644304851556,-1.1364632288856493,-2.152430317218007,-0.4783304971963177,-1.8189011741713499,0.20512378478922977,-0.5883633177696267,0.46080341876582076,-2.0196151485570786,0.33827827728383464,-1.6631067415703351,0.060567488147062816,-0.14182403673197105,-1.0877027864645734,-1.747467991078849,-1.1729127160965074,-0.9543120177156453,-1.691347807398737,-1.3924213357878414,-0.43778394622223626,-1.750746823935229,-1.7727458914255045,-1.1533450531835567,0.9929123414450802,1.3389143865739013,-0.4692878145084099,-0.6896839189508265,-0.04384145639062159,-0.9705807792632066,-0.8042861419878118,-1.6698641573071218,-1.3060878956178283,-0.7182529477430138,-2.2884893887282467,0.08816456779445758,-0.9883453693547116,-1.4520556944201726,-0.022662606613484737,-1.5112483615139505,-1.174280895642991,-1.0265408828964178,-0.7593188086800906,-2.946641834410447,-1.8014320699043413,0.5065717981309398,-0.5650184682662677,-0.9042886665650358,-1.0939775853704765,-0.6952464447536961,-1.271605349775611,1.8500598250934284,-0.7643799612461447,-1.2248773457370339,-2.780057622426021,-2.1679439256939887,-1.4381183641343571,-1.8515763791816227,-1.7341963010236072,0.44546203593971234,-0.1637399788042552,0.5844415420976443,-0.9642111213252819,-0.37740880176257785,-1.381910341349391
-2.1775296243397486,-1.1436047444400146,0.4522865019208163,-0.20694052372600996,-0.09869727510590388,0.22657699676079013,-0.30737478930375106,-2.1446745659061808,-1.6875645240764434,-1.6175938256420346,-1.4724675139247152,-1.291176186093909,1.2123883650188623,-0.10701781255053208,-1.876070978656394,-0.29350124485700746,0.1375205173838426,-0.28531140480387734,-0.07778988832462146,1.0734979722061533,-1.9752160701019266,-1.4025885153713407,-0.848918078308711,0.2142767380274091,-1.1241087008990582,0.6929615082265042,0.20319712008106916,0.2229593254933685,-1.3108085763800903,-0.3320907766172736,-0.3664447458635028,-0.9387298387674432,-0.7274472081644672,-0.8963705303744731,0.1377804106131132,-1.1180972432324263,-1.9537706761364586,-1.959174408278003,-0.24046310711939414,-0.20217936513552662,-0.9879567009413721,-0.24875949031507083,-2.647267766269239,-0.8941724208206907,0.5998206938407373,-0.43864600141772647,0.3639960754881305,-0.9743402345938156,2.7373698200407887e-05,-1.907811575919383,-0.11272502342470175,-1.2974919952190085,-0.595613674317446,-1.0177838866251445,-0.9476081425222279,-0.8558067200709059,-1.9430806902529407,0.0675032580991855,-1.996281187721613,2.0926902641498453,-1.2182613420714654,0.3527126129421534,-0.3693681020702798,-1.9804709361221968,-0.7758678053369981,-1.4430268963138235,1.288391105692704,-0.21407024011779038,-0.0016564834350216336,-1.0407109888631672,-0.3246910803906773,-0.21782193524618837,-1.025117850796689,0.1633744599784931,-0.739281707209653,-0.5670396313874265,-0.42877944659771006,-0.09479962617855285,-3.616589700210342,-0.2944707701058636,0.6143046472334431,-1.3134894616487525,0.9660756712655449,-1.8168709718979559,0.04003205950788224,0.777558042252027,-0.4145084864209796,0.4166089328111042,-1.1796343634708024,-2.3563724324706796,-1.2445001720302902,-1.2364928889971714,-1.0833104916505358,-0.8063032457105799,-0.8281570255613491,-0.5913769249100385,-0.1177868278653325,1.1471523313639151,-1.41186752656449,-1.098528762887003
-1.878286117223263,-0.05607830484797694,-0.9132553921660026,0.7865587512881977,1.3164932658675357,-0.8149965087781565,-0.5271122132947818,-1.5348790491839408,0.06680897256472582,-0.7805847181332634,-0.9450069722687736,0.35547801930320655,-0.5388117237951169,0.4966914792999335,-0.5783849393076885,0.3623038382245167,0.3144253650753776,0.486790562375115,-0.2511864103305363,-0.9093867266067315,-1.1745440054922818,-0.5475897867313004,-2.0429067158508127,-1.0603016642577396,-1.1681135563420424,-1.2144975188061078,-0.4723950660932339,-0.09831713873170729,-1.5455769647320192,0.6235622001140814,1.3847293929983475,-0.944629460611465,-0.9089158096509584,-1.4353959835579087,0.03282549718661013,-1.4530762278116378,-0.035469356578222415,-0.015606633833315682,-0.9619055845503127,-0.13019591875269512,-2.3772591102069294,-0.5363593422248825,-1.1698705482417797,-0.8844585084744894,-0.6235478506470183,-0.3517351634626641,-0.5169883842387133,-0.15911562814318334,-0.5993495561107083,0.5890952955893201,-2.368891496145166,-0.3772673692788633,-1.455882638030702,-1.4092960354389963,-0.3632744079667617,0.8974015228155328,-1.9600372112013067,0.7925619807485452,-1.48224178440402,1.1324859475167988,-2.1793986178605524,-1.3360202517990198,-2.8927764690678104,0.09141828910228905,1.330213035817147,-0.15519800657058855,0.5883716799745791,-1.8721334577563193,-0.14597868601057676,-0.4290398062518066,-0.5545454546635634,-0.7933848869756871,-0.9032423142065197,-0.9937910668752249,-1.5422780038019017,-2.2486203346287277,-0.3613187778404432,0.2806699454373509,-2.8280426757891277,0.6111072131405983,-1.138885882256754,1.0591585762274545,-0.4565444989262587,-0.9595677288793256,-0.36392966875146465,-1.785863813519971,0.055872839886876725,-1.0965549895685163,-1.270745292875361,-2.760356653587268,-2.6050606384350665,0.09412501488366282,-1.4384062307472112,-1.4297595210713125,-1.2611024402677364,0.44699819915672956,-0.013284743966687157,1.5875064420320635,-0.29712507342758704,-1.1689425698900269
-1.5170381180316894,0.2834997544053246,-0.05997216769121719,0.3962552125966463,-1.6433907279328333,-1.2915105811717869,-2.1654871349027407,-1.355036728566293,-0.2402504086236711,-1.6380479053503705,-0.627248650701164,-0.8889654574816098,0.05265568547287366,-0.30783383865580277,-0.6955462741673628,0.1310954730377272,-0.6166439190130253,-0.32900233050848876,-1.3566073579842812,-0.933254448739855,-0.13238247624528338,-1.0129174751977668,-0.3942045348006728,-1.1415562624753648,-0.10803036859370833,-0.5110109998229311,-0.08136661270763963,-0.7900647099347489,-0.07179823835697996,-0.8815923544709063,0.03382074384196764,-0.1145173455168611,-0.5975391212408164,-0.9851249382574818,0.3545035389286626,-0.5279274497092185,-1.2624587623138668,-0.8920672169998292,-0.3445676634909788,-2.3687825741688373,-1.4794707030473668,-0.7597050243729734,-1.1299452911259882,-1.3713164985081105,-0.43387072416046085,1.139445640588144,-1.27324171352304,0.4971477249402648,-0.7358033832459624,-0.7928977409064588,-1.1179379980480357,-0.14293543050116503,-2.3462003457652147,0.5215867298097943,-1.0139973577888244,-1.4454493918049713,-2.300396181475773,0.6366431198358334,-1.0971142181555507,1.329066717335654,0.2005420944791489,0.4521200479122536,0.8477733461794614,0.42463878410346534,0.36265973943347585,-0.7605132366385716,-0.8058040669266964,-1.4961176649406895,-0.7932988758372665,-0.032940052678527655,-2.003046262107911,-1.5620796682104734,-1.8199067550775812,-0.6325972623136982,-1.7966445331866696,-1.62744009692432,-0.8755146458297287,-1.3070221286906534,-2.8443688923441464,-0.2804142220043906,1.0219930295815585,-0.4941756987850478,-1.2292397625090075,-0.36922614797791903,-0.8985407760967836,-0.21556513067339222,-0.5607877201322429,0.35676100657145615,-1.8579764886998738,-2.4662960987788076,-2.233197655939262,-0.01335393929430439,-1.4589976067604618,-2.269611567579331,-0.6276849155971819,1.8746642398288367,0.17054375550649115,0.13099972122802903,1.0854715323350979,-0.22884321514100067
-1.1599617214328863,-1.275635938296695,0.2924593153167211,0.4672298346363909,-1.5519101266989614,-1.788648567975352,0.07448708443735255,-1.932843197140379,0.6398250319571,-0.9751383236205549,-1.0711718960538192,-0.8263208839743805,0.1671797385695289,-1.3761158960595774,-0.7459227073447701,-0.640522862872032,-1.0252518323588373,-1.5677992219248222,-1.7846500338729174,1.1528783872012374,-1.6016671774855846,-1.143341664033677,-1.0481759196992475,-1.9108828832201732,-1.9358382964118876,-2.458013332011574,0.60583270232199,1.2588714686025309,-0.8869268607624199,-1.1588510306797324,-0.9032645383111185,-0.41066107436624805,-1.9074109472719585,-0.06536758112696112,-1.5693492733602075,-0.8697348922923624,-2.508491301619536,-0.9496514375926509,1.0050413098649498,0.25769736006542765,-1.1628224020816278,-0.8816976400885024,-1.90100776221634,-0.5153750637284453,1.1454821710317116,-0.6919584349247191,-1.1128880378676056,1.1363879014298817,-0.7454017716614333,-1.2476855593193947,0.7481208848282839,-0.6446851485916238,-1.6727976050286333,-0.9631087331568452,-1.3136244441027278,0.7149180343686637,-2.172658062442874,-0.15516142563143828,-1.1204329400805397,0.019375190753549883,-0.356792580604218,-1.0763635920828847,-0.12623003359009086,-0.6763623080036018,-0.6183058451219897,-2.270725597150633,-2.555398665972328,-0.4528157156107707,-1.7319997479983598,-0.17449977319170298,-2.208566640172408,-0.12853849092411399,-0.650085886729371,-0.0913965967676967,-1.028230163065773,-1.2087217713674905,-0.30857807145396243,-2.237628847246012,-2.8443588229972607,0.10148821798688722,-0.6778390056018357,-0.12368228126180866,-1.2172610390517573,-0.4470209845253511,0.33430704377471265,-0.6883657769963616,0.032681268973518356,-1.8418086985104405,-1.4555860682460668,-2.845807635583033,-0.956601476238711,-0.9649933674826165,-2.23213535801731,-1.594468747852314,-0.8306384393011438,-1.3200284504584463,-1.238730484622506,-0.3933663157011893,0.28651352495609617,-0.562646395403067
-2.0855498916163775,-1.291150597539043,-0.5903349813045774,1.0667992485527578,0.6622965794632767,-1.0126881286892133,-0.3140261757786758,-1.7342117273484903,-0.397875751947851,-0.783989306201229,-0.6309375128081455,-1.6076687032532055,0.7453061455920624,-1.8741963803605781,-0.7226248238999334,-1.6870246142778718,-0.4526984557489825,-1.505755231498903,0.30657218334218894,1.0543613904855966,-0.767451833016473,0.05511965360403804,-1.0627281752554916,0.33428518581880096,0.7748790402418596,-0.48751605739287857,0.0668957138464712,-0.8016361372488039,-0.8439808719152065,0.3298530768190552,0.1262852290796388,-0.7807637137186922,-1.2017780261105269,-1.8659126723954838,0.39577989289151405,-1.5101059146824476,-1.5551785751041403,-1.0108076526995695,-1.5303736980515468,-0.40538653422537,-2.268588828158347,0.03938410673212158,-2.0683466013788303,-2.721423382026094,-0.49728103792931366,-1.7403169754965926,-0.05776827260344599,0.2932995400847097,0.8595026909374448,-1.7765483985321735,-0.2938708063479887,-0.3892057387049669,-1.4717918674668473,0.9441002908184295,0.4288354134639245,0.0219411674897698,-1.6465341686229198,0.35413849250233526,-1.329251436234274,-0.701231031440122,-0.25894959990836364,-0.055732074261773075,-1.1444789870400969,-0.5813498258618272,-0.9293113388716182,-1.9062213251667948,-0.7081024305906167,-0.8063558569725275,-0.12736862683475358,-1.3530193999401292,-1.1700455343848601,-0.8804185720616003,-2.1487605703687533,-0.9701723357036521,-1.3933956079601852,-1.4532289363712028,0.10257683832385993,0.20001007774169077,-2.5528450722271714,-0.08920598503275257,-0.13634547852113144,-0.5260227021200833,1.0893605696190336,-0.7189517282913597,1.3960338213075445,-0.04747159820362683,0.4480769953229057,-0.9581394982555621,-1.9600212977229643,-2.7023428467640063,-1.5837757619274666,-1.1473727107122929,-1.583569028222579,-1.6788915517448035,1.2586220736423916,0.28721007737716164,-1.4145731960707804,-0.5828358226566099,-1.5676762478875128,-1.9270611793175099
-0.8552829566880038,-0.7026782472004965,-1.3909945695620307,1.7205976610942035,-1.0631562278373023,-1.0685346039130794,-0.13212670225142556,-1.4686191616960644,-1.0103725597913058,-3.08836145462508,-0.8300796906601863,-0.9020710117421066,-0.34613460881631797,-1.2764084689896424,0.3160835548264812,-0.29369214199683374,0.1965872661266756,1.8688396097015163,-0.8109064596912026,1.450988073993551,-1.8069115158682245,0.19454554897361231,0.12060339576128214,-0.29610272685108596,2.1427964518042506,-0.14861897967465068,-0.4073505720256056,-0.9994876525697257,0.022075788087885358,0.4430166357152042,-0.6900884050577146,-0.5626976785835945,-1.8746197665134607,-1.1524902910068864,-1.1313018802508403,-2.4559657715829255,-2.214586990973089,-0.04024415542345915,0.09531293635736986,0.7104882363980118,-1.4039443208164422,-0.6463079725428091,-1.9989752731884307,-0.26826001667559546,1.5296306569540015,-0.09950316486984391,0.8164137518650862,-1.0616480942149076,-0.20896966566156058,-0.09702877984560473,-0.6229531496637218,-1.9120290580781387,-0.9930353349086081,0.456827691852949,-0.9663468888093468,-0.8795045134544981,-2.9465307994209837,0.7635820022035187,-1.5347589335552743,-0.11164981863780005,-0.9138133160651043,-0.7437645972544422,0.04030033328960527,-0.6548847738080059,-0.5109200340035213,-2.068398048229792,-0.3708941404849548,-1.0709829081363726,-1.8841574492033175,-1.4835013543965705,-0.1414689757100872,-0.1984240575296454,-1.3344584825859984,-1.887799742772455,-1.832567739648517,-1.3475040471768558,0.7336787436987627,-1.4887732677121226,-2.9068006739530365,-0.3098074646351845,-0.9061555246013426,2.209528394979372,0.9289568649306323,-1.831625961859964,-0.7921948188243554,-0.10944609615108365,0.5282124276089425,0.14197251959639856,-1.01592881762551,-2.4096642236238965,-1.1881721103990024,-0.043682950021288386,-1.1578876323266247,-1.4339515852290128,-0.06675186963427197,-0.3480202772937952,-2.014013074098644,-1.9992814421975516,-1.3140066282292415,-1.7328360215937673
-1.3864841994363546,-1.0932307641491106,-1.2114676476152835,-0.2228174170050935,0.340459197699189,-0.6287987545696866,-0.7039685074377893,-1.916634383087116,-1.297988566821394,-1.8108954150255363,-0.5668284466096611,-0.5191698237380421,-0.7969398651468339,-1.6926217784046234,0.4763073616774748,-0.5031452364305561,-2.1455795403238365,-1.6845291452349702,-1.2830772450031764,0.24357835796962823,-2.130624263258333,-0.8691511174287131,-1.0613865274771603,-1.9361352797147338,0.8312881169102997,-0.16001836393755287,-2.7743079871405554,-0.19737758747572406,0.42667644653507697,-0.02727162136497227,-0.043760997941982724,1.9880930270125914,-0.8254946429498828,-0.6933933818393299,-2.6137967516208533,-1.5034461394861245,-1.9174463950177785,-1.0734703558574272,0.05703693290726739,-0.376985908701695,-1.8188184162673273,-1.072948069264793,-1.255646873443755,-0.9527495821551154,0.7019635475369327,-0.6309244433984766,-1.0423308944949732,-0.3918178870577033,0.9165345175616544,-0.5547638856843573,-1.1356321784984973,0.3797543638971115,-1.961255182641676,1.4313403989228186,-1.118903118819114,-0.8413345794180032,-1.8601463435235375,-0.6246678057451706,-0.7934855807467421,-0.6689880205029554,-0.4284049452877085,-0.22067118644879818,-0.12764754971202108,-0.7529259945652356,0.43051693723043705,1.3356924653562887,-1.1953964147287117,-0.8989147519440837,-0.6697359140375757,0.9135876416473168,-1.0780396886868397,-0.7751844038009061,-1.691054999754167,-0.1913154918805815,-2.130732738896843,-0.09763384143686114,-0.0677768336100268,0.6754015139841638,-3.538506235098475,-0.2953436942313142,0.22152821405870315,0.5822683152053314,-0.803776887273611,-0.6783324516344075,-3.161394548169723,0.19734707419015976,-1.2218094489248394,-1.526160499002208,-1.8605129444673902,-2.4999122580463777,-1.059871678496619,-1.2054588030250413,-1.5490322003440409,-0.3926119579247191,-0.833829367473166,-0.4416916671746376,-0.6907075415537745,-0.06630000053322008,-1.3070387006729554,0.440343453209034
-1.5904229635532896,-1.585007631892067,-3.048723266488346,-0.08080853677866005,1.9712685342217757,-0.3297747579269778,-0.08820716650407458,-1.473131719414501,0.2706245259846569,-2.6168666675876744,-0.9206327265429168,-1.3722596087679606,-1.1324480241092072,0.8945964419611767,-1.1261332010792462,0.50360221645284,-0.011553995310897009,-0.7654822539464781,0.6941256402619622,0.13997141092465099,-0.7749501143533644,-1.0914554069291156,-1.7934616936565646,-0.012902385684268098,-0.31207875945484853,-0.1172097089410295,-0.24237122407765296,-0.0011794631758841774,-0.6209751711353991,1.4042067589775442,-0.49249125678509187,0.6524610232489982,-0.6179440430603814,-1.1070319537217792,-1.0378212388456804,-2.4382082724130054,0.039442540494558635,-0.944543371910621,0.41503583037931535,-0.12935144632949208,-2.0053278217579007,-0.30994611455509535,-1.3225264976186493,-0.6210991166668195,0.7033727629579921,-1.1460177179807822,-0.7457993590591049,-0.9528776351079538,0.32035790488483507,0.5722527705819338,-0.39618217904235675,0.03687612977989057,-1.7285399310453178,0.8193010799321077,-0.9883310451020716,0.07009395246212904,-2.247005503980794,0.1657581307778512,-1.5210607339339104,1.1515260592667875,-0.4059580892899965,0.444513603501536,1.1354542540983215,-0.640580412832303,-0.2607649887913793,-0.740631333330905,0.4916002279270948,-0.6316620829001726,-1.3182325049638899,-3.2100933476260383,0.03836982765582322,-0.7734241522733601,-1.5262773283926876,0.6553198611258348,-0.5891261608776243,-1.056662648988597,-0.6739082606549593,-2.716749845156225,-2.84426957649217,-1.1767939884106593,-0.2736372144985873,1.0045451888861403,-0.2754961674229315,-2.0319493509265945,-0.9215555681058406,-0.6454520462097898,0.0006534408623791003,-1.08158139380313,-1.642758668927518,-2.3113927875903135,-1.9979130671261456,0.5840651627320511,-1.5441735337961553,-2.063289549590957,-0.9570533782450017,0.1283916717200395,-0.3204614807538483,-1.247145312343014,-1.1930285710800332,-1.0941331313173355
-1.570008888039863,-0.6397065625235062,2.051872565650536,0.09223949597920264,-0.972949883677643,-2.0801128571233027,-0.9800934998667931,-1.3140503811256785,0.3638128490726057,-1.5584950594768656,-1.182907462261286,-1.718766564274931,-0.6765301439969273,-1.2504516102453749,2.2883964169276694,-0.4515112426428375,-1.1514584264947525,-1.979233407282594,1.5412207650494303,0.5227486384854405,-1.0175216405132648,-0.7097273527923326,-0.15307969497240917,-2.175482092717893,0.04762804675917863,0.9965477558063052,0.8206657424341874,0.2191418757546577,-0.08692948697473635,-0.22407136675255232,-1.0380430118825523,-0.5192160758172094,-1.3437476860726916,-1.2166083558503191,-0.9305279241217981,0.3860746413066025,-0.13716548019147967,-1.5672753947830356,-0.15764148565517827,0.9199064817828737,-1.8237016566038473,-1.3443547338529283,-1.0270741886862527,0.3284034865149592,2.206543498061817,-0.6994823652707048,-0.12509064112584814,0.5244403299228252,-0.7914405020555835,-0.7540474967912143,-0.7172524259975238,-0.04191216019343031,-3.093184118364981,-0.2076515578668156,-0.8770537798608643,-0.9698802965735008,-2.2465446656641577,-0.7723197729128387,-1.6935304959669395,-0.303368410878133,-0.2034912420502674,-2.015529304372742,-0.3324653212227093,-1.2535925271853678,0.12573221211773428,-0.40400604426248415,-1.1911027603142494,-1.3792592354571775,-1.5602830949183828,-1.4769229023903458,-0.37378593492506895,0.07867355693699084,-1.3311408092126953,0.5059047014265372,-2.5825718783263523,-1.8638792977107888,-1.426827326515977,-0.2517708965802333,-2.8040053599974657,0.14417608917558036,0.2243012116763935,-2.170801521345039,-0.24566865141921637,-0.4499184146972212,-0.05424610304098758,-0.9301275496698167,0.024960953453070367,-0.6610295887237757,-1.460250860566184,-2.7311113521081842,-2.003450889663119,0.5133444526483931,-1.823818865066959,-2.0983036532195882,0.6457048141214373,-1.672573623770546,-0.031827482746508776,-1.2543744188828876,0.21692475885698803,-0.24603271199377968
-1.2596747329157687,-0.8742733534453053,-0.5065534089038893,1.1504501741397508,-0.2649020755896823,-0.414616517866442,-2.194398033756528,-1.5779435488388156,0.17516533695138348,-2.62711635322979,-0.057582748078510174,-1.0828321187387842,-1.0110529784956166,-0.5975346560157672,-2.094749390415629,0.648065626230647,0.5784316100708798,-0.7520137345619072,-0.5221711335939357,0.453184770194772,-0.6412176237321094,-2.5257321182313897,0.06740447921413797,-1.470351272764757,0.1558684715928441,0.6537430109317524,0.504510229219205,-1.497306195603234,-0.1183279439686666,0.44851711952165274,0.7148422746141117,0.8639978093326599,-2.323518258874431,-0.3338582177845156,0.8739893967680892,-1.6913179478059985,0.4467496122591381,-1.64355693289961,-1.0036936160218157,-0.2561927777378754,-2.335902759802311,-1.2842556565486913,-1.8429813859831718,0.035883149730459134,0.28906089719248207,0.3269882885767025,-0.20642891184644777,-1.8771718704018552,0.6042379033172134,-0.2670869127917402,-0.5078574101989425,-1.4454660975619833,-1.6230193043456111,-0.7466087963868693,-1.6750573623867129,-1.0237837946603423,-1.5029734277831341,-1.2740100067881555,-1.7967875136348097,-0.6270874905712238,-1.58942839033227,0.5088627877131242,-1.5560093135574127,-0.47401413789730723,-0.21382265222631724,0.7469257586638671,-0.7741606183250462,-0.6790825830743354,-1.079999119383261,-0.7082540261158411,-0.07524458664946498,-0.999288564184367,-1.58775189732416,-0.12927317411365002,-1.4844229497912187,0.6419855753464931,-1.218010163503896,-0.670797054651072,-2.999057745926226,-1.0163607055774155,-0.8511266398657945,-0.14073149911712635,0.16261740377628892,-0.5689095188312566,-0.7735494603601505,-0.9011140101664075,0.023759586209991565,-0.7322953948155461,-1.8320117685162478,-2.3341585309810555,-1.085318424452657,-0.6505156010268455,-1.6617688296276023,-1.9208589539411853,-1.8710993959012352,0.1311236143993162,0.3592704690432327,-0.2248745763891394,0.44307961720956,-1.0837178851913658
-2.088892360698494,0.13453593656228513,0.14610326664378726,0.24848079165925616,-1.362737911363708,-0.7740305755711967,-1.422050767740297,-2.0984408114522997,-0.6263825810539869,-0.6742072474004158,-0.9104625736585116,-0.3862899476436205,0.6198005926241803,-1.6819716409628271,-0.9801389833624097,-1.8623290050620236,0.09830354899966458,0.4862603244436572,1.2054696067421864,-1.2089567820242986,-0.9854413324721093,0.31887902246668565,-0.6854303756410579,-1.557107631961801,1.0287573569478972,1.7442806379813625,-1.502918507177859,-1.8591149600614982,-0.6481788702385217,-0.44814133579442994,-1.9147533799972956,0.9264470298193288,-0.8037795880510689,-1.1527157974974638,-1.0380261251272125,-0.8350511454549099,-1.2774495466535358,-0.5154809438506577,-0.3086241507613898,-1.4862304517662752,-0.5498326154077069,-0.7077634726645603,-1.1191422280291785,-0.5149378882197477,-0.6082934157640354,-1.35174622099214,-0.7259315303269698,-3.3013886018441414,0.369434320386517,-1.4422708021777477,-1.4281273239893488,-0.9246798530790206,-1.7216336040948386,1.043975681612239,-1.2834355728894367,-0.8364517620059818,-3.0229977485820636,-1.955331717622691,-1.488894507372556,1.0275479962684113,-1.4214991379300674,-0.680623561906705,-0.32575304819790635,-1.1743032617175506,-1.9035669023699262,-2.1854517319761526,-1.3490010007341553,-1.5186386137503654,1.0993562073035261,0.36750294915587256,0.46036848287136733,-1.498080172283928,-1.518234486612087,2.056175934652639,-1.638052599159802,-1.252479130967934,-0.21625794410818686,0.1581700934440249,-3.1803344222532837,-0.2742123086098981,-0.7037976951709359,0.46326792955064044,-0.15460727462196722,-0.8872028454331912,-0.027864662144555054,-0.2718471723465779,-0.5584221310584647,-0.808241252558267,-1.1592949904139271,-2.1222163561364047,-2.3674096078673665,-0.4441538870975974,-1.2891550110959542,-1.5453222586687236,-0.1385120522142312,-0.11995282903699592,0.00030030590886373845,-0.8478087569767239,-1.0472262220248034,1.1821003741224385
-1.9128091202704423,-0.5633300985685726,-1.392183806963088,1.8210319689944796,-0.14683136864433188,1.2517975322029165,-1.589769601295795,-1.52787377062187,-0.3030712443950171,-1.1782570671131045,-0.8274151637692971,-1.1560589791166467,-0.11042852444683901,-0.7075557485095252,0.22282778555916738,0.42143760736846236,-0.21259438620312643,-1.352903019835815,-0.6278859707205466,0.7371116451028616,-0.36123284119722054,-1.0039153721583445,-2.3796564299454714,-1.7799666408868051,2.3909850731297198,0.9476201992001938,0.46396216763998743,-1.364510127143081,-0.18453392056287996,-0.36461921126774727,-0.6774564312552123,-1.9711799328745019,-2.2748920435912363,0.5401234731571749,-0.8654327359025449,-0.4792630608611607,-0.35391726089009434,0.45539807952387457,-0.6784932199290545,1.1192257581069864,-3.262592021782347,0.779875170629476,-1.8769215601432772,-1.1995795301761634,-0.48993585285314767,-1.3832551579644805,-0.4801104214029101,-0.9168887741557114,0.5181578512989434,-0.21057790931353726,-1.652103155742889,-2.037444132088219,-2.1160220796645453,-0.33501241984363656,-1.2176920063702636,-0.9377848586153751,-1.020811238769553,1.5569516834020363,0.16940641579858373,0.3578320029914366,-0.7549961518480947,-0.8882815236342672,-0.734526083759561,-0.242478255617454,-2.2641777104228624,-1.2067053981031166,-0.2804382864260536,-0.530984424256827,-0.6194337060508085,-0.52286285596355,-0.7681515730685181,0.3439554337092674,-2.2441626673338066,-0.9471771293001794,-1.8583884323984332,-1.0477315469402964,-2.2162956480676805,-0.5534951343250745,-3.0040618390737386,-1.364287312300187,0.8567009518256476,0.680251848150446,-1.9150776262489886,-0.6838844208145743,0.12442040357975472,-2.1746889360756034,0.139565072112193,-0.61025011584884,-1.7367592987727214,-2.9156133047065977,-2.1739370885147467,-0.8066234367504065,-1.6580067965175749,-1.0735809037312203,-1.6590168850366016,-0.9135836857407554,-1.7221962820947512,0.8870461054068643,-1.5841215141330083,-0.9783727566092926
-1.834322722346854,-1.9118517397891206,-0.8445424913788431,-0.18142423796564844,0.9192830990047762,0.7054137294633307,0.33803355348787134,-1.6729938798751143,-0.687654532948283,-1.1226644063769946,-0.24239391871283694,-0.7005648887539329,0.8852740755282247,0.20058192660359375,-0.6078738635497017,0.02507330705966719,0.5776862717055866,-2.3730977572667906,0.0912062739097187,-0.7212253731522694,-0.9750719974565623,-1.3950696406048377,0.9631253766500092,-1.6889006592777356,-0.6224402625045576,0.25496839278436856,-0.3640216670387399,-0.3858665340233794,-0.8084160538335624,0.19152803641436567,0.02201543335668587,-0.5729148629178609,-0.5618948699182512,0.5965738464427164,-0.11049147963085162,-1.195649097307805,0.5159562314452737,-1.4578366569583987,-0.7236978872990152,-0.17778325301840048,-1.8997173008249935,0.32562676848315397,-1.5380674045179763,-0.7740571431876291,-1.7378117771587414,0.04693321954665375,-0.5707779169331706,-1.2246311360588082,-0.0660372780153682,0.08033858798654069,-1.3168958024378854,-1.6822536383241264,-1.4278884933153213,0.08646178840435978,-0.960447287251183,0.6246787887985531,-1.880261881742894,-2.270049775440772,-0.663288454409504,-1.299900867424285,-0.7029593445002521,-1.1140751976278314,-1.3273235420393823,-2.244077524194759,0.8868053222325969,-0.6214731473779861,0.033399429006073865,-0.6460531220002,-2.1831260921521873,-1.6890543344734734,-0.9499384373328477,-1.178863603323945,-1.1131787536278044,-0.8309659252063576,-1.508072594471377,-0.3019035773303214,-0.9161178003651161,0.16377015810206907,-2.7687398833360586,-0.1529697849536439,-2.0838996118428,-0.5014027939213791,-1.4123428552741906,-0.7846361449948674,-2.4244948072971684,-0.941417725464104,1.571316562722518,-1.7899647039098456,-1.8404043618176087,-2.1952560901307643,-1.6560269805640266,-0.4301495396958907,-2.4235570971263356,-1.891420554016797,0.9066109884099318,-1.0457525972728268,-0.8415731924411588,-0.6524325232853287,-0.2820850950993919,-0.08653636745586599
-1.2199051924909385,-2.052064019860107,0.19971342914559032,-1.3146605931854831,0.1510480746317031,0.23624024641519165,-1.5231179741091334,-1.7951348662381272,0.6357820518622033,-1.1164560799663852,-2.636301719712979,0.08645647909893467,-0.08028202253861302,0.03439843255150588,0.7696775374051206,-0.06434057264975025,0.6220473799038546,-1.91893124471949,-0.4708681777281849,1.326435963753214,-0.6605739328209838,-0.8230572790367398,0.33712244800257707,-0.5390159585687425,-1.2835170488426266,-1.1823217822068062,-0.39792734545961633,-1.3149546066460494,-0.2638786522658534,-0.18904183009559114,0.10866719164868163,-0.6066000337750619,-0.5555607964812069,-0.22844744733307346,-0.8208384807565914,-1.6957675108795385,-1.4201436672098426,1.0759667055400153,-0.051030634999571806,-0.3336830287755534,-0.8357357518137873,-0.6516858194605472,-1.4401495182524142,-0.41766724680161604,0.03787377761127957,0.13403323653761423,-1.607516928673446,-0.7140499170849186,-0.6670450134903638,-1.1525955212724999,-2.2405577928408844,1.363484129033218,-1.20437303403078,-0.21676070701924108,-1.8473959362467098,0.048763961852045165,-2.5615698973138863,-0.1323011797759069,-1.267169513171661,0.042386472473485086,-0.48579190642491044,-0.47232741965990604,0.7194370648438431,-0.47567148332205855,0.21946253370318947,0.289744077101052,0.00949184633298296,0.27294641806299125,-1.6506071953829653,-1.4046013092523861,-0.09322795373208528,-1.3411440017124128,-1.769007649408041,-0.17555673322697793,-0.6652982858889136,-2.187858714774168,0.6396610530152829,0.0766275875381095,-3.044661416923666,-0.36785509707619235,0.7446234891512638,-1.1360078377367497,-1.8878078225846622,-0.918885703412943,-1.3253863768444891,-1.213259629356773,0.045050400937704585,-0.2589562743396147,-1.6948995216606482,-3.14720394449555,-1.7557581586608721,1.4750685245320891,-2.018492799176054,-1.1365625663532741,1.3398063311485793,0.41742453214927444,-1.4212864899227635,0.9879839444853251,-1.4632442251879105,-1.173015733805053
-2.0919920722662133,-0.27302143526883715,-0.2508103616738466,-0.036556492660220354,1.2703313839753767,0.03871237011763747,-1.1635500736880415,-1.1283483592627797,1.3752630572811497,-1.2664601933872903,-1.1585231517874535,-1.8790988718305588,0.39747288639284006,-2.5332407140350015,-0.578591307494958,-0.29111092628830715,-1.1715634279623903,-0.35909606853563564,0.039491447483703625,-1.2979747077833967,-0.8443454957082137,-0.5690745230009503,-0.4812211882421145,-0.694333102701381,-1.4580988712320535,-0.562746837984886,-1.6179765939210689,-0.8068612609593412,-1.2560206323573564,-0.6195636903385214,0.4062665423192185,0.47019403964923345,-1.5925571353383772,-0.35244801942053133,0.6270411616573635,-0.060894811048422356,1.630075620186444,-2.952355340307584,0.27336587012466373,-0.7099647953387603,-2.6758037148277323,-0.25863909211711583,-1.5333678816849627,-1.0631545310011232,-0.726026304921012,-0.8952358766289839,0.14371444785940415,-0.42735822715123123,0.438873063608053,0.15648006471849885,-1.588352929616872,-1.0288648227048904,-1.5180647159132066,-1.6217095522769711,-1.4562363790606057,-0.12896116803016372,-2.0540699885482123,-0.5210064457214783,-3.509477866452809,-0.9389789670886229,0.8450743403849821,-0.757213988721517,1.2133422529356184,-0.7673151494605251,0.41478771028280614,-0.03536794974687488,-1.4355803145028088,-1.2139292270721918,-0.048349403988248114,-1.6327172972242152,0.3395847404475971,-0.8184794228715114,-1.710662057306262,1.1311618483695975,-1.6175907429401977,-0.6166753862690448,-0.5741413550117686,-0.8655036513824074,-2.712105659103218,0.41761880629576564,0.6315071888605941,-0.45011034779955095,-2.105218980057397,-1.4684453832206141,-0.814789845728807,0.31120014126900686,0.7774702789284809,-1.661236562316617,-2.1638273578230036,-2.0673740482157723,-1.9976707255410224,1.0483491858937692,0.14609845703815208,-3.291785295411881,-2.4394548853559073,-1.2503396689224713,0.5899691640386575,1.0475774436863827,-2.155209127565421,-1.2016590710653463
-1.309111057487447,-1.1751621185270438,-1.278500865540439,-0.7824584762288566,0.7014657943436959,-2.032519574913496,-1.6257123734698455,-0.7523280226578587,1.1585209349742698,-0.5777729055307291,-0.22974388756147507,-1.852111884414638,0.2465585173561503,-0.8675927733912921,-0.4282829756987048,0.9817483729275103,-1.502799703783107,-1.4115606345272513,0.3060949408136978,-0.562451794497405,-1.2230172512421804,0.30502796514315245,-2.573770602548229,-2.7206900899248607,0.2633215311489711,-0.08008792072248112,-0.4310906908792576,-1.3215593483797223,0.12161366935764577,-0.3255966414094756,-0.7195619828384566,0.05702070583395249,-1.1720694151714925,-1.1534844511462712,-2.2391012094877043,-1.4168570399700222,-0.016197102790298963,-0.6736717683614096,-0.41517117098415857,-0.16017393086479423,-1.7332998467792546,-2.2340155947429303,-2.621782772886447,0.688283946578186,-0.7979250301689518,-1.0606060284467809,-2.0451023027789614,0.24638011916752012,1.3094808185592774,-0.05747468933646127,1.7709958304247035,-1.3468438235485496,-1.0320983972722206,-0.888605023857952,-0.1873669707399845,-0.6637838228813194,-1.5685349627617102,1.1287586498364799,-1.8387884043752334,-0.488228310250195,-1.450417359776709,-1.0759053623393189,-1.6394297059350202,0.24126179261472802,-2.7417419053764354,-0.31626159966527495,-1.0392451474366182,-0.8985883516149605,-0.5110474679549238,-1.2430115116377685,-1.2641517530163346,-0.1976006360995594,-0.7146509670179959,0.4159061548888149,-2.156391947304339,-1.4949366202349754,0.27414207578599337,1.047132653597458,-3.889738042105064,-0.34051448994029315,-0.5718650700312633,-0.5967666835007595,-1.0298515675518065,-1.1570821753910243,0.9092306463405193,-2.1510638185741757,0.5114885952512387,-0.4013360192275956,-1.1014631612321117,-2.32131406623545,-1.187879711352901,-0.6182253261473285,-2.6779931634440337,-2.4615392729156085,-2.049731829067975,0.009167938661655538,1.6923554141836623,-0.6850839900237633,-1.3100024267502324,-0.275220225630585
-2.70779823057103,-0.9620322754097111,-0.39588183689401396,1.5590833506544242,-0.3264387708996877,-0.31379456035358705,-1.3722689174124825,-1.4148015603851904,-1.9899966999078116,-1.6996661585464508,-0.9565233322365092,-1.1903101184387561,-0.9793376998015527,-1.2777478539895328,-0.7365572891981528,0.35680586786698854,1.540048449989358,-0.35032571032927545,-0.7007605161798104,1.7197171639253062,-1.5241721667323935,-0.6400429820081376,-2.6902412627585077,-0.3992590994864866,0.2986923315704515,-0.9803729889216779,-0.8497139887586203,-0.32815162762231304,0.2812182475787868,-0.8054802077021566,0.565040310141482,-0.34876029487153487,-0.3563902477507949,-0.026648799027918002,-0.3924321285986102,-0.9593020876262381,0.19077859972968636,0.7239493706627982,-0.6489143003763475,0.033168106320464956,-0.5326309045188814,-1.1739207398887428,-2.5628627723612065,-1.4628772704983484,-0.08248789900863585,-0.13219686286270457,-1.0517908247634487,-0.99004467833978,0.28225502503025535,1.0594999266838412,-2.3521155322569443,0.8051339715301009,-1.0954543627292725,-0.3192133126952887,-0.34699177002629,0.7398604090700461,-1.677846166902581,-0.16461249716572532,0.22305929684600434,0.48383496067749676,0.8271954012615368,-0.5160856912367795,-1.0592907496028718,-1.6711018469276848,0.42005543589091754,-1.6547473177514116,-0.003030464394385455,-1.0366973064121066,-0.08643183711375142,-0.6602830144474474,-1.3201829707815946,-1.454567022918964,-0.9703639792889054,-2.031931826368908,-1.9713965361866619,-1.7197378198100786,0.9897307168119407,0.4926850558581476,-3.131754074206358,-0.0134049099267271,-2.04309582545724,1.3026164786835597,-1.107351321498,-1.3934836757317037,-0.4280646318199267,-0.11152684913977137,2.025416159710827,0.15151374942755147,-1.7446467892459578,-2.564906502157346,-2.2017276504999197,-0.2929978393872297,-1.9331691574040077,-1.666016242741018,0.5831213356877073,-1.3471783149100716,-1.9706807518181289,0.6937121517409481,0.3534920066564935,-0.43923784400685795
-2.4145007646951044,-1.4597131899695392,-1.4662429514008488,1.4927069130882549,0.2549276169807063,-1.1175231657804756,-1.7229491966006636,-0.7576397133380216,-1.2287788799878916,-1.623839541234988,-0.9631434676894404,-1.8775962042130283,0.4659387054079708,-0.14873950442334258,-2.5944948781749932,-0.05493482160134009,-1.474249642608224,-0.07748591643143118,-0.6020596261217991,1.3047210879441382,0.8159187277117088,0.24786285172323153,-0.9408043297427947,-1.0634284975022157,-1.2532539821382418,-0.39527904474985875,1.0608755752876038,-0.3284638357074407,-0.24189083386741997,-0.4091295969627691,0.25091047100445774,0.2404610504697025,-1.2134798392852615,-0.4017838464414575,0.5966601674767777,-0.907422959180325,-0.6214080279632103,-0.8276120526016416,-0.8374763582553831,-0.1649477977881101,-0.6915778409494303,0.5874980593654437,-1.8636327826874333,0.695560297010049,-0.3585116169575864,0.38539307890948415,0.8667259587274159,-0.5070709711198819,-0.9416343812444721,-0.23724053016219782,0.16689337367556006,-1.1117741722062024,-1.0558174344825197,0.152901328082097,0.04397363656694131,-0.3816123745275178,-1.5203880840525124,-0.026685594654237227,-0.6617366715369883,-1.2736957316699733,1.5960425033508896,0.07020706511426636,0.6288568006629458,-1.3500853656272838,-0.5252079414036337,-0.5906971044873224,-0.4256121654828806,-1.4994653672060454,-0.45432490933822234,-0.7570194859558915,-0.6503538303122615,-0.4110165779501754,-1.6948891775913821,-0.717334278138864,-0.8415223595158349,-0.22963891995183064,-1.8420750869117244,-0.06459940828139317,-3.030157383187389,-2.2591534371201387,-0.43796749594878825,-1.013171220254396,-0.9193385461793028,-1.456106210818731,-2.560444649844989,-1.726652740238422,0.3377981349314242,-1.0202855636965205,-2.6910657012059342,-3.214132263606911,-3.0344598313320645,-1.8143164195178694,-2.0070837208874637,-1.1483020882982358,0.4517370832357597,-0.45859149868862004,0.15343815993726384,-0.3121282896807373,-0.21232455146455723,-2.3599363235804405
-1.5081839541149724,-0.2777525818531781,0.21107917524858044,1.2561624718194138,-0.7534447894388315,1.4123355392837416,-0.3438974516011902,-2.1045612779895624,-0.9006592014245328,-0.6114303500187993,0.8114359021993847,-1.0272843956802011,-0.38481385834989873,-0.9163324132980449,1.4522084264951391,-0.3814926910556806,-0.9979025752481528,0.24950846837896468,-1.3814796293687297,1.0144482042614054,-0.10754164266311653,-2.8339550656595023,-0.6445398523078111,-2.0597147449782898,0.2610080015815395,1.168226900222139,-0.4806209914836196,-0.2391655649953163,-1.8032698158310898,-0.7670122448673539,1.641570687355825,-0.09635709118426415,-2.750173673202897,-0.9988155545267322,-0.5741313067245104,-1.7274994890408466,0.29138678076237157,-0.09045232474760102,-0.472360465792987,-1.0343651810725631,-2.557625024883197,0.14555349878170432,-1.1620344380304277,-2.9216354564757268,0.960575527009943,-0.5659418257661437,0.6460797433944231,0.9109712969802526,-1.566022819094837,-0.7937496028402706,-2.0477251829509413,-1.615643914927024,-1.4514187181363247,-0.16338024763679287,-0.4576125648625756,-1.5831477175244257,-1.836340256863055,-2.167894359239288,-0.17683471937036002,-1.436616012580255,0.19793505911599774,-0.05932287484353796,0.021328838482304636,-1.611215799854612,-0.6888754954200401,-0.38682553560771216,1.2013136900301566,-0.2577444559452115,-0.14378895617060913,-0.3339182529226043,-0.8382158538747465,-0.8836671943237538,-1.8567451237958315,-0.432007940794568,-1.6627171916253842,-0.2693262565625431,0.11975335666037988,-0.21853180052909918,-2.7125616175140066,-0.7579398872906318,-0.08392315911099772,-1.5835684045616676,-1.8985666344869339,-0.8041404616882614,0.6514597121380524,-0.6078587775570801,-1.2200660005993906,-1.1087046977492134,-2.4755329871547262,-2.8197489201884447,-2.1660150844339454,0.5484906002903148,-1.7101795655559027,-0.8388087023647787,-1.9234401709662918,-0.42568547796829875,-0.08775284331070002,-0.14615466989695447,-0.8784364791690945,-2.3240494267191143
-1.8204919158805453,-1.9420533163567602,-1.029897962161766,-1.2846086880069003,-0.6447802972137643,-0.32328278273708255,-1.0390800418501218,-1.9979595420093363,1.023529998292663,-2.322637945794582,-1.5500027211876362,-1.9254753186543605,1.87482253749374,-0.9777160434393123,-0.7864783325592851,-1.473848958670874,1.2903833778119855,-3.573706363020975,1.3941833990384724,-1.0304261188375168,-0.3926663261621782,-0.36175629886833455,-0.5238676111434051,-0.2934362345687066,0.018595220690856555,-0.2541383968503916,0.366312081568412,0.08718059344870693,-0.49391937324834395,-0.5441149305766255,-0.34140941760755417,1.0631328237299746,-0.9932644925739796,0.6526286311246157,-0.10985203327615019,-1.1417474662708709,-0.9303153682675785,-0.8135660719692538,-0.3832956797591399,-0.7458618911068186,-1.5915414351793713,-0.7519814086964074,-1.59660043105706,-1.3832875191372518,-0.14509024075958538,0.19522137665919304,-0.22573490358961223,1.1197583358413035,-0.8499763872378119,-3.0720043558668984,-0.9141116901230664,0.8444740987751052,-2.0307480474144546,0.9251798061231047,-1.3688654589069311,-1.4561677976677205,-2.353423951803789,-0.010470848523197117,-2.3882850412301937,-0.4018943723067412,-0.5437443872513499,-0.3927002948105406,-0.05874532054137496,-1.1145690044664032,0.27814635461759435,-0.566477601494931,0.033926999154054456,-0.2365577219259289,-0.269292494505164,-0.6029675007040929,-0.20909388715473148,-0.06103395677836247,-2.48347158060767,-0.6100419598149711,-0.7933156910446908,-0.7077793803695253,0.3473133704376083,-0.6678688033972567,-2.9110903949232045,-1.5419465126608314,0.45909835741697325,-0.19716535918822475,-0.07594085345413835,-0.731066500462647,0.361609457454373,0.3538486143018458,0.010688714859474766,0.810561999199908,-2.0080964802044017,-2.4853666689849665,-1.8709524964639297,-1.2250617408924496,-0.6248805359623903,-0.6173166466227945,0.5187910381259007,-0.25706970038306987,-0.10706340631659893,1.2251065021168852,0.427432800135534,0.15359778808060148
-2.3870929888425887,0.3406966835203533,-1.4188003173608128,-0.3231885048824032,-0.7156648397189207,-0.24659046039882254,-0.6322605032784883,-1.131396224796263,-0.6195563600794706,-1.5175633383990013,-1.3189961614960337,-2.0024776591469275,-1.2280866887871644,0.42393316257211533,-0.9646742040182589,0.7586334714714387,0.5474661243398327,1.4057944333976666,-0.5690109570790732,0.8773506646215226,0.06067930162686506,-1.770786925368737,-1.0180348873719822,-1.541788089620949,0.03623957377856334,0.2125273800735158,0.025970369423086975,-0.0060624425262712864,-0.12350619731673644,0.20782222212908052,-0.41611223849875273,0.7349438975128603,-1.1398777473542847,-0.5685401273379703,0.9819052607203524,-1.595110752304834,-0.2168259964759691,-0.8365615857561718,-0.8229248653609793,-0.2184552243262188,-1.6209096628143789,-0.6842370533552058,-2.550383437468535,-0.29059618790886504,0.8457694235695561,0.11522156331388626,-1.552890471134619,-0.6251389283692981,0.01041321867093094,0.9432599741845551,0.201753623585339,-0.10227058527244068,-0.7154233614048905,-1.4646617163810631,-1.1483042671217474,0.03746004945412922,-1.5427326941178132,0.16066586749202097,0.23254205317658538,-1.5237827673462148,-0.7615873012172479,-0.8971634941489257,-1.0996414406999453,-2.121700112885255,-0.3770436802982542,-1.532053511088989,-0.27780824817390315,-0.7037546043800952,-2.0551289656872322,-0.12064742229559318,0.2731612484995172,-0.039676032411691875,-1.596271141530963,0.49437965839525433,-1.7380518885128762,-0.6410068338050271,0.9240918866659307,-0.3903750834710961,-3.1308088234593017,1.8299907067752925,-0.9636285953937496,-0.3332671930348093,-0.5351693046310037,-1.7494013340166594,-0.9163509419740896,-0.591219629707043,0.2960801431253325,-0.44164789567043183,-1.8544423993470966,-2.8464514599804875,-2.0093032754483864,-1.4975317598403846,-1.6516259156309714,-1.6674472056050762,-0.5612823720936939,-1.2867584728317074,0.1168749718856668,-0.417444232672447,-0.824340882329953,-1.3905818673316066
-1.5177174830601714,-0.5223759844242886,-0.13855478346333927,-0.8647049677760177,0.48935945912002465,-1.5326374220170416,-0.9259523447081175,-1.3195771243163774,-0.0699876049906864,-1.3754004577996315,-2.249121645355852,-1.014354849604906,0.8680516923163488,-0.3503384575585524,1.1651193084731326,-0.3496856005799957,0.5562407370695702,-1.8397202891075297,-0.08273530370826883,0.6710642078565108,0.10455649457734632,-0.11360919347741699,-0.09290972170841204,-1.4323181697442897,0.042409199832989214,-0.5954663790758518,-1.8886640265284855,-1.4970183782128437,-0.39070152368227967,-1.375150931443244,0.9336307987339132,-0.323390678843747,-1.3773329427476786,1.1918233388165067,-0.15525488271698398,-2.0237898894127926,-0.8370431297800132,0.11072855138652699,-1.1233270711533188,-0.34841148740909916,-2.2733392798971233,-0.9688908045612626,-1.4839980318522192,0.21721773304915337,-0.733293142984863,-2.3391507088867893,-1.6131769372147993,0.35105340263060225,1.7057571045661728,2.722900150719623,0.19688822545448825,-1.0356211564413913,-1.175302965905448,0.37557066371286707,-1.9115317849818771,0.35631510835562874,-1.5458355540995263,0.954339803419006,-1.475963145034994,0.3628433078346792,-1.0914832551337112,-1.6916904496247436,-1.4665777502474833,-1.3081688817396473,1.119408523615923,-0.0065772088039034605,1.6191354803192435,-2.385711549584672,1.1233117073899601,-1.0407046869524281,0.5880092503937202,0.10133355555833219,-1.990149929978906,-1.1950399669549159,-1.4252033553170396,-0.9981832276315338,-0.6665740341114972,-0.6593046715966937,-3.124004752421673,-1.6570315601400767,-1.2846495747201945,-0.14689126894910118,-0.631142109710085,-1.0229546885255798,-0.7244605019000095,-0.5866030872238319,-0.12463360029110176,-1.4155986245986512,-1.920446614434646,-2.307760276115884,-2.0747862013003515,0.07248324996199815,-0.7040313066664987,-1.4596792230309923,0.53638202166566,-0.2836803007861775,0.027426605846266494,0.4055743094600017,-1.4589271699664181,0.10432514992944479
-1.4408946288863294,-0.16590027778262045,-0.8005125069081476,-2.049564343788483,-0.2088542547332202,-0.7684513830322199,-0.7572691295859787,-1.006876068072761,-0.699342325927937,-0.9209142877487011,-1.69707334744005,-2.0828940535235003,-0.8827543399097829,0.22343893408515147,-0.40155960083602393,1.4737229160277094,-1.1392813799882657,-1.4446201090504274,-0.8153541011449398,-1.7531251986084748,-0.7570509599267564,-1.3743683717847475,-1.703901617162168,-0.6436541489020874,1.7179877891737494,-0.6911146702918184,0.2911859510406556,-0.9632210540248206,-0.11152737698476639,-2.61246086909216,0.030129441893970058,0.6205201769835605,-2.0085749559045967,0.04861838785605281,0.004682966130726444,-1.8215024633141192,-0.12702996128783875,-0.6123827157657445,-0.43594721772499967,-0.9285139068492528,-1.0582378513217103,-0.3386148514517735,-0.6757336393431307,-0.5688898977499944,0.8042644016979609,-1.7092146869199059,0.9156799342350024,0.0993741348661127,-0.9079146994027165,-0.3865729712337055,-1.7714068139542705,-0.6639017250591303,-1.8280728687732497,-0.21594233709610516,-0.7574794895484538,0.7928138636546039,-2.0345964246247794,1.2229983013439398,-0.9806328411684141,0.10635013105107319,-0.2915931624011253,-0.08193428084119668,0.21634620050589587,-1.6820420961735214,0.5419852629070908,0.4712500966539257,-1.1090120597507964,-1.669539997842065,0.24378258173744916,-1.2422773191248464,-1.6494610204561955,-0.6511842875107018,-1.7576912110927838,0.08775622225328861,-1.5862072129501141,-1.7040536952959147,-0.15230081744343765,-0.6721899103982863,-2.880093021487532,0.23725970157311632,-0.5587408756844456,1.115492824629876,-2.045645678422444,-1.0928367382617765,-0.28554123462188674,-2.2398641093752056,1.2235527450469004,-1.6197337066788715,-1.340222424441506,-3.430801556434405,-1.4938317307460982,0.5621028219258366,-1.4302067247899026,-0.4087119835424135,-0.04182742574576559,-1.5154130652199616,-0.36634396244277107,-1.1415639158853217,-0.5878464923005111,-0.8671024635664065
-1.479967889993605,-1.609553583756269,-0.0775208551024279,-0.8652347381762782,-1.047087658555888,0.3153840896126532,-2.023163940672549,-0.40609199895687004,-1.3500085858787985,-1.1889118319462162,-1.9563039671732445,-0.3657302930597518,-0.2671164379517862,0.4139615451107681,-0.6751269515416441,0.8075637499945092,0.061484571295884145,-0.0647613786163191,-0.15334881444967766,1.6288502464329744,-0.9942141641656411,-1.2689985590806414,-0.36416149601163345,-0.4204554708571289,1.8129431357331558,-1.4217826946438576,-1.152493250860409,0.525654568428729,0.42914355461489984,-1.1370850855998245,0.653785472569825,-1.0306927394571108,-0.7680401294261507,-0.10637885230207342,-0.023405043416518764,-2.3465516498249968,0.21775568191449635,-0.5226709930903758,-1.5347817821970204,-1.318343808200299,-0.6249142199304745,-0.39372903967799844,-1.707661777310219,-1.370189886860319,-0.33780811338804906,-0.4671945150930744,0.08663882716201463,-0.4674634540817024,-1.5203411889540341,-1.1261257208426905,-2.4193571640736953,-0.43199620233284947,-1.3847571612059522,-0.74287480656247,-1.0749308756722618,-1.6841200061572614,-1.597026333139969,-0.8340493305439484,-0.7090010858603512,-0.1148967954919306,1.0216827115343192,-2.1672273529743182,1.2296180099359,-0.6373743450040893,0.33115157422551267,-0.0386034208938532,-0.6207146117460463,-1.573457767960786,-1.5031456412816013,-0.9332376224734101,0.3280415136096366,-0.5392142810679019,-1.170219255792962,-0.6672850323136584,-1.1575117225185416,-1.4179729156806253,0.49515542270803004,0.9836621452376886,-3.7929176766524955,-2.254250177075145,-1.384272336830033,-1.4623856386585707,-0.21665151653335715,-0.7954124551998023,0.5233615714635907,-1.1248400157619614,0.1856888618277132,0.5269263005807925,-1.5111963288866856,-3.540287905210668,-1.959385599287573,-2.3232761470767453,-1.0938336629574972,-2.2017631620162885,-0.9484204263267917,-0.01556167161657366,-2.0138036764398226,-0.5569010689700014,-0.2219906389292172,-0.29095309585518003
-1.1822090520903104,0.8768417810496023,-0.7216811767031376,-1.0062354742212787,1.5039012425339704,0.23804747306641427,-2.994604254334894,-1.0472155508615573,-0.8748424999924133,-2.2953146073805972,0.23977294550045003,-1.8594730717070442,-0.29447612650321986,-0.4115855110280063,-1.0246507518087529,0.39134070214194927,-0.27608097012231975,-0.08765811705328742,0.2939208731030406,0.647950845201207,-1.4442630121693878,-1.5024877458285593,-0.8973882583193544,0.17639794016199883,1.1040596276542685,-0.38924892327006483,-1.8506737695790323,-0.007311452257666733,-1.7626511674169187,-1.9045901302315669,1.048007912828555,-0.13719442391776504,-0.9682524434370152,0.5221308404737183,-2.0748084035643304,-1.346677442199121,-0.06383806665880815,1.0190428571954042,-1.568145782863735,0.21237869650217867,-2.216719019642878,-1.3838201580287766,-1.7887619156317112,-0.5403097260613676,-0.16167237832332912,-1.1855735335557553,0.4403139983967781,-2.669891849446451,-0.8056594417973367,0.14269546633933708,0.6112322721798777,-0.09640390776845308,-2.5187195183625146,-0.0777649189194491,-1.765929417274378,0.8376412087573648,-1.4628922701638924,-0.09533357669955249,-0.7317590572487209,2.6219878949152116,-1.6749982678205708,-0.027610116004980124,0.749404740614672,-1.2133275722945243,-0.20667061538165554,-0.9223617597106393,-1.4748419651753957,-1.0801241270586228,-0.24057648736902076,-1.3576165276864949,-1.3557992148409155,-0.5966414406631678,-1.4088679524358,-0.9772626890212999,-2.2738162598792706,-1.9098405102669407,0.121445888530462,-1.287179363281326,-2.942721087829073,-0.9107202943792929,-1.40985175691149,1.9338075015242684,-0.6674519680967674,-0.21511109353175145,-0.288871209071443,-0.4693044004847111,-0.4557502341258596,0.11369442047327019,-1.120773100521057,-2.574254045433699,-1.6722419100200274,0.15008040522917787,-1.932912623570687,-1.4521869458894776,-0.7135595977456116,-1.9083804332719265,-1.8173535092560298,-0.3422970442021203,-1.5295092180868952,-0.13120099065755597
-2.0196721946943823,-0.08229384310719313,-0.78033878212985,-0.9809438714955157,0.2734927626623501,-1.2857762745903925,-1.2273332328344522,-1.624886383330258,0.5116640851893751,-1.6834787984843669,-1.0265985503728965,-1.6970159692598525,-1.0132929411318783,-2.111980325665549,-0.465251928520088,0.0371803255415371,-1.4363182070438918,0.05781966631157324,-1.0484871906282904,-1.091101255883404,-0.8614413524353518,-0.3329859871551954,-0.5939049944909096,-1.6528947004274033,-1.7311795933855072,-1.0863886836144456,-1.9170378757195636,0.9087409840905651,-1.3629156929687885,-0.5948935572666287,-0.5077274468093105,1.5287330325455728,-1.776810602817497,-1.8571814680208372,0.5287316787865993,-1.3158315070673066,-1.4063545099710144,-1.5946165772833667,-1.4056496422077416,-0.5290829052527549,-1.560355056981321,-0.3587221909204733,-1.7535968790621888,-0.5832984541528157,1.7899417273031846,1.4014877066028175,0.7143490194628546,-0.787155644939526,-0.625202908778571,1.1216649769398526,-1.4817620650882144,-1.9071289005758365,-1.109106553570306,-0.8189370716183497,-0.8745309799287592,-0.9613360255098002,-1.4999514471719362,0.4317310598386056,-1.975577996399135,-1.3276901279666597,-0.09960924640302558,-0.5003580055805887,-0.6544890465780988,-0.6420349918016245,-0.12300672525005167,0.31230807042893605,-0.47859748877545244,-0.7379268203713995,-1.3622847550438562,0.7800563749064702,-2.4154154090035465,-0.9724589804127465,-2.104453154910166,-1.4815136212173743,-1.2552301610387138,-2.189707332225756,0.5338433955108048,0.4839655419390352,-3.15281877335359,-0.12645554992481417,-0.12380279116983012,-0.9986579342447391,-1.9181962810123812,-0.6064851719472183,0.1542078581033367,-1.2872005728923543,0.5435870593721055,-2.1641290788934264,-1.357779757639546,-2.45475232767341,-0.5251375791661234,0.4362284694291958,-0.6857826404510287,-1.2461064847029042,-0.6884676366540174,0.21735425775353567,-0.1920568517879997,-2.314035162629785,-1.18756012552243,1.1216999503713336
-1.7760663461264568,0.43254151563447785,-0.13663730883075706,-0.6083952344218446,-1.8280007354203545,0.34101014588184586,-2.4098956239288563,-1.163116561220278,0.48081831236764394,-0.6553501189679196,0.17311461880023393,-1.9075499993339013,-1.2945464293232387,-0.45302126615305804,-0.3240369429185029,-0.5973622344752176,-0.7123550102137219,-1.5934846468994373,-1.094994419103884,0.4948204407495611,-0.5499648417059607,-1.3641331064153635,-0.7153209360636227,-1.5781688242284395,-0.008322560594590142,-0.8970036218057877,-0.713371804204805,-0.2434880771870192,-1.2272291371855562,-0.6650110623115741,0.7687420354724491,1.720693252060324,-1.6506742978873423,1.7879823391225633,0.6666161655682841,-2.4486934382240486,-0.026874926453638093,-0.7313844427887113,-0.9706647548031998,-0.10132411057759896,-0.9097702322699858,-1.32124575539931,-1.7972335453779207,-1.2144789306386092,1.1025131176278717,0.10327102826956354,-1.0095780199809437,-1.3970918138243456,-1.8208629579388815,0.2580222443903336,-1.7137996570049918,1.5156212980155475,-1.1224069841874678,-1.6475528443492775,-0.8338605588902163,-0.9636113724422191,-2.025153465523974,-0.389190647003406,-0.3841957241637325,-1.3162864066900681,-0.46340127322109603,-2.1842860834927684,-0.5707597909733365,-0.13954927155537983,-0.08260795920408281,-1.2669984402597665,-1.879158982183477,-0.8473428100093643,-1.7277122901247923,-1.225367410461604,-2.439665654598881,-0.5616865413570478,-0.9397783667859614,0.5634967676455096,-0.8217261758144724,-1.0159222913710348,-0.14054181952487235,-1.1075274227333225,-3.030338056621041,-0.2899611515105615,1.8904681544956656,-1.093481683550247,-0.971067462964041,-0.9349338620843352,-0.7222337164667763,-1.202645754517379,0.10059645791919565,-1.1960338701637312,-2.250068051679714,-2.80425755499162,-2.106431668954066,1.0660230865556588,-1.6907149863416584,-1.4924987972585742,-1.239740382619711,0.16652961189140764,-1.2572675894346161,-1.8605494500443884,0.870368070847984,0.2941900328113537
-1.1925707484381993,0.035801535511866704,0.15133103883912946,-1.136181116270205,0.60141299254384,0.4248284449312205,-1.4243194673139945,-1.0874574409993367,-0.9457569663133041,-1.6735789436885486,-0.6005594566608099,-1.3385851148485688,1.7394532901701467,1.2133082870813854,-0.9745404803839262,-1.030453629452461,1.239193297766274,-0.20253939728057044,1.180666877971794,0.742045528603994,-0.07522725739441581,-0.8485125170814203,-0.3364760924233148,-1.5225910287691582,-1.1250900016519871,-1.1567585582557303,-1.400284956102866,-1.7247559948727815,-1.0333924199567672,0.04975703255197758,-0.8194161841913324,1.0080032239089207,-0.10261443790783899,-0.6598945973441473,0.7348441442165006,-1.6820927857685546,-0.6872641166973225,-0.6722272973969825,-1.6677103888079219,-1.0772829617158963,-1.323702905301794,-0.49334109918576513,-1.9800164867944066,-1.7132696191062264,-0.9760443616029464,-1.3080772630352335,0.26426994466754783,-0.4957183576112002,0.9556962734250529,-0.7294613690297634,-1.39719529500372,-1.2367797087341006,-2.3627616774261195,-0.16756766830410016,-1.4335294412648059,0.0030985452990186547,-2.4424186079555232,1.7043796967226186,-1.829481359452287,-0.8152493873746035,-0.5355121780677982,-0.9584646622636455,0.5525762054477892,-0.3848345849536503,-0.2563224504080085,-0.4485365352446365,-0.610708279867427,-0.5841384655090579,0.9914127705433171,-1.2089927322012657,0.12344734680775131,0.013462754590221936,-0.5765582895217726,1.1769929871383906,-2.3152099502556553,0.3338930042454493,1.610660938733609,-0.12314301344550001,-3.012323293841847,-0.38499066910836843,-0.28672560831574695,-0.09958827005174933,-0.2754151816313043,-0.42856704675725227,-0.2909440029327995,-2.0222839658291534,0.47326243098477905,-1.365941321676188,-2.389256228331654,-3.2317635172524946,-2.72146713800204,-0.590893351762866,-1.7586848743651335,-1.685882779050518,-0.729932509234575,0.07086941508418582,1.000529801212875,0.1472289305322771,-0.2865792245906845,-0.2839796721299688
-1.014796975514629,-0.09192170435749547,0.7113370591782258,0.17392716664657162,-0.30411068942963926,0.17300317511947838,-1.5587590100559627,-1.2293038276831025,-1.6436136004860258,-1.400791735452477,-1.5567909737613186,-1.927183476071562,0.6935135666197881,-0.4595502209838858,1.0618836298439114,-0.8491282885832638,0.09910416581990873,-2.0969866342433194,-1.668935745308612,0.833289725295085,-1.0390019364695275,-1.4724568262412352,1.2807885131244385,-1.4653135790937994,-1.5200106156329014,-0.08207598567983636,-0.8879029352445688,0.5388016095948521,-1.8450674240963474,-1.775595999522531,0.144198953421581,0.2866436354080548,-0.5504559911807175,0.9579341818919618,-0.2766276327197386,-2.4927008597361673,-1.2648841699535889,-0.4024211151201177,-0.4281661842023381,-1.584536662005153,-2.392193400918258,0.43854541906897015,-1.207295238607382,-1.385470466576777,-0.9465510332063453,0.059777986524163974,-0.3337101402681318,0.5851544354232003,-0.6270830869829587,-1.031559365155062,-0.17341752819113027,-1.3244711770970155,-2.120900172925856,-0.6327654095184005,-0.42677589136609345,-0.7911024629590508,-2.1992068237201434,-2.339267831445008,-1.0829051088389208,-0.6858232422737441,0.5079242758424913,0.08456241805776633,0.016383506586396764,-1.0348230222508552,-1.3336786227621347,0.5260522853037018,0.295196821707296,-2.8259711284247917,-0.1702548357894711,-1.0964187856074736,-0.9334492782843224,-0.46866893668804976,-1.037646157989577,0.4791869949357246,-2.338397146020785,-0.48072712642613225,0.3175881146068417,-1.4833579448960077,-2.736603572445161,0.810715366538004,1.1455486410507267,0.6661286406380433,-0.9459595425107796,-1.6521896827389224,-0.16315101716633404,-1.843424171760092,1.5380980431919722,0.11923274457808501,-1.671937978809233,-2.213612076436273,-1.8569821209758415,-1.8823493942201306,-0.30317911486534815,-0.9022473022303403,-1.459772868980288,-0.26444213832603375,-0.026401246561871095,0.46872414985582045,-0.885548400452769,-1.0769966811289347
-1.1172869366180023,0.32086479951187075,0.4794489475059931,-1.4788633298213312,-0.09855694844254383,-1.1012904101087102,-1.6396939009577844,-1.5631481258364373,0.0909940521092967,-3.018773083708593,0.40691132130068,-1.7310665340537759,0.6062951486306251,-0.3781990967101407,-0.7234905930837696,-0.39679532404910406,-0.3777228374184608,-0.6639811961021632,-1.733183556674894,0.032575131708679796,-0.3759097269507989,-0.17239309741261497,-1.564990742931525,-0.6332943484150582,-0.1733323043331074,0.02728858181708775,-1.8114630225237287,-2.0394370494894503,-0.796111141341553,-0.5713595386201807,-1.4719783437791958,0.3840423808403913,-0.29939550244392316,0.5449298607231967,-0.39610949790643873,-0.8097608913589789,-1.6601334522430067,-2.2684063463995736,-0.7028978112374106,1.1632437258012975,-1.4844339292214088,-0.12993713054098743,-3.165519176097386,-2.088434948233135,-0.14829484453737213,-0.2978087741593762,1.5657785901234529,-0.8006185909494004,0.28205990485265797,-0.9715945403578358,-1.4960138608532536,0.2428907496363522,-0.5109693573140933,1.136040737829329,-0.8559475927273307,-1.324863354386151,-2.326934451431503,0.6601019817723872,-1.4062199926947563,-0.7511147262025863,0.6207707968328295,1.1622595991726767,-0.4883990781900324,-0.2252465376439266,-1.6904027243192705,-0.894873679753772,-0.4641083644140623,-0.5874406698204819,-0.06456974612361942,0.4287319492705034,-0.7428973818883964,-0.2411713083127753,-2.3719355847779715,0.6730664532867907,-1.2779490865154968,-0.4816122396861412,-0.5711157043232762,-0.5741424414205161,-3.04232533444343,-0.13493273388016397,-2.1892507997039274,0.7309219521987594,-0.5728707746377638,-1.734488567319415,1.1320547250709962,-2.296457055317014,0.2822924187302755,-0.9453450610140535,-1.3996019858074127,-2.332461862275744,-1.6384610314817956,0.31518577054631547,-1.1160393173221492,-1.442266757634925,0.3579956214199943,-1.1112244052865086,-2.7826468823830215,-0.167138661160051,-0.3308319115505889,0.21742702419717008
-1.5358394959194925,-0.5823908998467083,-1.800773556267385,0.3470296567743049,-0.12708646059452097,-1.2531171441223155,-1.2696378794217749,-0.7860771047717439,-1.6270050916259426,-0.49811584990719643,-0.9077776550933265,-0.7535807590215692,0.5587831485274349,-0.38289633025083947,-1.0580936108700465,0.4118333574604994,-1.721612216032161,-2.4451540931557756,-0.8114823896201317,-0.4709432542635213,-1.962541676987092,0.6224668311797175,0.376216278375727,-1.1657483816486889,0.43961886128671357,-0.05030635434140231,-0.4467617586045173,-0.9031017568842736,-0.8217967651964003,-0.29459641946768983,0.6123247252087858,0.6118545097157813,-1.5445079544335398,1.3275556004009201,-1.1293284713685003,-1.5244914369115319,0.26955068820453465,-2.020973898103961,-0.030064582174303363,-0.9167597649856153,-1.2205852748846102,-1.3122305538870542,-1.0468459082817645,-1.8921892218920071,-1.163621479124376,-1.2694305565475779,-1.050370756851403,-0.6227977221162773,0.5664661320640654,-2.2507453671008446,-0.7759366370133342,0.4762770114368078,-1.3076478847850947,-2.175863773184452,0.15024110958386516,0.8431049932518426,-2.1449948845236677,-0.21494479904197397,-1.0677381769652812,-0.4138227262125154,-0.1128601381024429,-0.11245754279928497,-0.3658728542007046,-0.4828119021255457,0.2872657516346756,0.8129754960995625,1.6938634911957715,-1.2840418464140921,-0.10102703084363322,-0.9405851761569333,-1.8067739679058517,-0.22825949385539956,-1.858064412999337,-1.0670927470868963,-1.155564460303338,-0.6675113160851615,-1.0099933042138953,-0.5954207192564969,-2.924320628628049,-2.3237940768750756,-0.2709339983635473,1.0195375476945152,-0.32985962071423425,-1.8041932489147636,0.42663317410145574,-0.3314833029912304,-0.040916165061290505,0.9542267067121712,-1.2489879180079035,-2.9227278161250494,-2.034828338160992,0.13718611578290665,-1.4861490078722346,-1.1822709572806178,-0.2141237235287725,-0.735784167819894,-1.0064461802360063,-0.6841089787831093,-1.4238964679806678,-1.4310485492947227
-1.6507611663677344,-0.5308600646077313,-1.3951711007029814,-1.8072596283236249,0.3781921274494604,-0.3082467951014243,0.08214723725665636,-1.5237393420459406,-0.9913247428464457,-0.8989177728941492,-0.810741082835474,-1.3474721965660892,0.1691612063577497,-1.5500881963300892,-0.6427243548191496,1.6590101044945487,0.6774978337949409,0.7589297564948692,1.1679005448218398,-1.1582395784994546,-0.08348075072558392,-0.24511039597527284,0.18799979727225113,-0.12050801975294208,-0.18662294357390788,-1.1034594712692105,-0.8328952544497346,-0.41525876149151975,-0.07674793329162634,1.304678208337832,-1.162720438487211,-0.0896670589561236,-1.815724391344338,-0.08573681511769966,-0.42248869610934825,-1.5763173832269226,0.020561204048866195,-0.9218830757695592,-0.8028265431811786,-0.9750719162346249,-1.7906157282126829,-1.2793686403595672,-1.7011334791491999,-0.44355860849862955,-0.6746474848546361,-0.7713830316451074,-1.7732105951930512,0.5079556217547085,0.5417897445192705,-0.4728242666533573,0.576969302800771,-0.4135329523226227,-1.4840053836141422,-0.009215715610123515,-1.537931948521365,-0.36828465975440683,-1.995117395653006,-0.5702527987890662,-2.5911141548426637,-1.1385842790964116,-1.0164421612072494,-1.1107425806901272,0.7592731334717986,-1.7816134511275221,-1.17784797588154,-2.2784043323680105,-0.9603839035075704,-0.6268554683718779,-0.38989653554058157,-1.2121896530211163,-0.8381980429027658,-1.355491162339124,-0.5705680213084144,-0.961055589749182,-1.6292822133011229,-0.4396819020241602,2.1489282999723835,-0.28470390372647647,-3.1173637284923927,0.1160407580984794,0.06859919944296503,-1.3890044778568154,-0.3294713965551846,-0.6190994299604715,-0.46886870208747644,-0.9974156410155544,-0.07957485661954393,-0.17365591396261518,-2.3022096377169565,-2.830115966037237,-1.5534847364793076,-0.04952716157273563,-1.3504203213906316,-0.8213731709633444,-0.08148309597296614,0.6020667065132462,-0.7808215840186861,-0.5122688684797134,-1.6660574987789918,-1.7388028172375494
-2.0685828238329687,-0.13630187256354778,0.8155784785786986,0.4042558197336664,0.27646556619332885,0.4945145966283182,0.31493905368727493,-2.6670150857774484,-0.40539582840235244,-2.4905449052810273,-1.9865659525731145,-0.4115600353723826,1.3339071049039433,-0.3972498617635193,0.2846168550824191,-0.08548444283359806,-0.32468760279981457,0.7901383005308826,0.14963950161410233,-0.7969607084678665,0.33646305110647434,-0.7000756122185414,0.6210094341173564,-1.2975775403146714,-1.072661713065001,-1.1685702370593467,-0.8598017560669483,-0.7927593149305772,-0.32578799836514266,-0.30990425307494335,0.14769897046580396,1.106212136641322,-0.9833250548199246,0.818099530145801,0.48131728518506933,-1.2402910627310344,-3.0163487849100155,-0.45169629233252195,-1.0463467605656789,0.4328300762483738,-0.6596392494018689,-1.15975612961249,-1.2459250449576842,-1.0297614000866144,0.03149964717918656,-0.6962156108146029,-1.1163679450668857,-0.22622520444549696,-1.0706857731348112,0.2936526447211729,-0.8578741652793278,-0.4151591474716765,-1.2960101923584586,0.19255236301979414,-1.6170333316396865,-1.6229046586556124,-2.120101952626123,-0.9177490508190768,-1.4978471236172475,-1.4465864083595015,-0.010683067363577237,-0.6561062679877379,-0.4138374072916619,-1.85321145177404,-0.6735317918290982,-2.7294289678272228,0.2875885241345511,-0.48345377298595926,-1.0641217217342087,0.5303880480994052,0.5562807962981451,-1.700643834784911,-1.1957583270998382,1.3670364995332251,-0.9724285737306636,-0.9783794229024521,-1.707152330008845,-0.6655779065556623,-3.1178719724072645,0.5735386114874028,-0.5025547719119997,-0.40893341636248093,0.21209718569903557,-0.5315635377092857,-0.989259588473133,-0.6423171336720411,0.6995062405521748,-0.6206238177345608,-2.1582139488342715,-2.554409318555351,-2.844537882140082,0.3767595787153092,-0.6456058756644377,-1.5434098301955193,-1.553330859670446,0.07224542400337744,-1.3019041659861843,0.4367091528242806,-1.5451443411162769,-1.937572325711873
-1.5717103633003424,-1.180400123024832,-0.14699197913759893,-0.8283896915787831,0.13897415200702,-1.6476592773025887,-1.3188003489057252,-1.124144151029974,-0.8506752798460343,-2.0677680036932315,-0.6459938605245068,-1.7796139162623406,1.1870765227965983,0.049022994839087605,-0.06267719370641331,0.7820314833503226,0.9136875852156816,-1.4962688591959155,-0.9744766858365572,-1.0793622826510694,0.23326250157487238,0.6195923805276027,-0.15391134253500247,-1.3888022505104038,-1.4884689222952108,-0.11882505162698137,-2.9924406245260124,-1.6580432847543098,-0.4952744179724253,0.2113885333330804,0.5936414018209818,1.0594008101652697,-0.6479434812134534,-1.0048577373176197,-0.010256994274022553,-0.8374089354300435,-1.3883724359866643,-0.0037125812507740087,-1.3429496842622903,0.08295638564239112,-0.878764206245546,0.7474098540428209,-1.9876819307158056,-0.3458534192863303,-0.6583227503353495,-2.1272861744499076,-0.4979249341034766,-1.0936093976314165,-0.5813026588218559,-1.2926537323593803,-0.5748164784145472,-0.08628824671227853,-1.5296666262220722,-1.988145551358592,-1.6894936914979843,0.9297536848609478,-1.7994592001168095,-0.4426173157086456,-1.4539380698381106,-0.3416615309259015,1.214209753926362,-0.7290840319743361,-0.5232122689279748,-0.5660272522324677,0.5811952632138743,-1.2769824505750738,0.21923169591797417,-0.6872819003390723,-0.5594536844514657,-2.069011896009454,-0.7541070626928456,-1.772220343196873,-1.0157699031810457,-1.8401207026446607,-1.0196595247589655,-0.3529857856867695,-0.04774697624831173,-0.8586554525459461,-2.807223780232018,0.5245714588232606,0.01455503004741083,-0.6814940806017333,0.3361794965741869,-1.1176179536333435,0.08799937686117854,-0.5561352818153895,0.09279657947222952,-0.3400765030394127,-1.9470447132931468,-2.3173765783120737,-1.60483355636372,-1.0394744454030278,-0.5438692972278151,-1.5503098786034335,0.36478570430986557,1.6972261589667939,-0.5523863933553278,-2.788989828487172,0.23527058992572614,1.2191214950729186
-1.5579367329243496,-0.6079979363408059,-1.6420049693160712,-0.6349565484985624,-1.3431516805591486,-0.39580034319084345,0.451567888684697,-1.6917376990047144,0.681130091659383,-1.9884647217614455,-0.10363195155397675,-1.657452539283665,0.1870517588928436,-0.8811481227171242,0.34478391180466295,0.4586127432883861,0.6697059041331623,-1.1409062077372163,0.9573083843781183,1.4926158942765857,-1.5543374064263606,0.12313911156871603,-0.4674344495282805,-0.9227233755295281,-0.12142355304962527,0.8689053663392585,-2.799806505853785,-0.3017335260260277,-0.3286176044981141,-0.23575939609785002,0.7519888532799671,0.21986708671557864,-1.7029356301951974,-0.2256067702526794,-1.1881748567695296,-1.9465134489184066,-1.2650942178176414,-1.469786109212642,-0.5720215701071544,0.08817437776743745,-1.9000921870712735,-0.9940226361017663,-0.7540705485694749,-0.7632906215195583,-1.1199732905016713,-0.8195489415014685,-1.0489726086000182,0.3329778890452213,-1.6739669416082341,0.720062356571241,-0.7688184337453977,-0.5986680443838408,-1.425930633754144,0.49642198312524555,-1.2325721755660346,-0.7727405037969995,-1.9516401748654684,-0.30603935050846853,-0.5240253629641458,0.6955165330632348,1.2649034589678663,-0.1968915086852699,-1.0907377064321995,-2.213409548964884,-1.5405711012354626,-1.0851797663328506,1.686523287844367,-1.0286670547160703,-0.14900674237191056,-1.1547059386995444,-1.030101483141785,-0.8600441124552571,-0.9324796601559261,-2.4955118271100662,-1.24223565527977,-1.0764801051821138,-0.7908318894422648,-0.3637119879386558,-3.1221913155668055,0.4222527338152331,0.6263753096062756,0.08654097459829471,-2.2363055341291074,-2.0099294567457284,-2.8089645430844192,-0.9570420405689098,0.2776475334685028,-0.6672210067897304,-1.172275756524589,-2.0256457406705866,-1.9150067055957787,-0.24422017543558977,-1.196746099921666,-0.8153200646397931,0.4088711242096832,-1.4789111088100941,-0.5530204928229805,-0.9844529600041803,-0.10841967948123418,-0.18782121955748
-2.241593217619711,-0.47374194716760804,-2.4374105836209394,-0.1884084025637826,-0.31148440250225695,1.0924073246586614,-1.056571988998398,-2.278603391923027,-1.0265348167262756,-2.3715498972727174,-1.1284200442424581,-0.6721016619177274,-0.8510493013119232,-0.8357565093086715,-0.8980365605376865,-0.605921159381772,1.2563670908900322,0.011788119199979021,-1.5798156837992876,-0.5181942950613251,-0.24427566156826214,0.6880852725910505,-0.3014999854098844,-0.848888148635653,-0.5835905292624634,0.3964652134411826,-1.398586692607085,0.19894050768946614,-0.18413706778868505,-0.4419951146224872,-0.6333814459696404,0.15282009710249655,-1.5445039655823078,-1.4650029476925683,0.3612715627702037,-1.1045403531287727,-0.7861285855399854,-2.851394214379785,-0.18297229249391553,-1.4208893616368832,-2.290486751933899,-0.46945269691366615,-0.9610339796039198,-0.007000424033091162,-1.5895793365549749,-1.207552240546711,-0.9945940558687439,0.9063873943832761,-1.702494369015925,-0.685450796744643,-0.581801828593995,1.087391150711459,-1.234367768765834,-0.423721188445436,-0.7457905719373012,0.3911615678836118,-1.8638977581834144,-0.6110031388487739,-0.657131966525028,0.5611475029893122,-0.009029619497803698,-0.32843991705979403,-2.6974860980203275,-0.7889584511285057,-0.46124653172836,-1.0793740560422986,0.059912455346032574,0.11984158420853545,-1.5122231912002648,1.2200252905258486,-2.284965593562261,-0.32707358613988285,-1.6148170976229441,-0.9268348957154561,-1.5465389166311576,-1.957492923973871,-0.5206822980992056,2.2743775356301814,-3.134466009867076,-0.02791787504562015,2.272640056555034,-0.725452269008989,-1.292529293179311,-1.0096929298770554,-0.6537291893709049,-1.3301585767362643,-0.08300610834736785,-0.3176973555422796,-1.9783231322009949,-2.1902372204802565,-2.3081532690319033,1.298643751334648,-1.520655614898875,-1.0971223579427218,0.2893609308091974,-2.5398136908217444,-0.0895139445889482,1.0551060076746126,-0.5047383997332503,1.5630746840368137
-2.622278037476279,-0.9077911779054915,-1.4493067978270024,1.2981049152284316,0.7121257899333637,-0.7030461465825874,-1.687548738523162,-1.21442912984213,-0.3365236267059908,-1.1406722374089855,-1.820659921617908,-2.0924334889791085,0.5632680433051811,-1.2630236746416303,-0.4137561528440306,1.0968381876976392,0.5683933049096043,-1.227493665746534,-1.4208794023901172,-0.2391866128018766,-0.2520919236201763,-0.7431531297729936,-1.4263173027434515,-1.701483422140883,0.5073662974837296,0.729414241671319,-2.8023051880482353,-0.18357359004811422,-0.363925766475241,-0.005051078214592735,0.5679324945727527,0.3792421212619448,-1.0549708995501348,0.7373752238972242,0.885352066512189,-1.2808071155278737,-0.9795568715912697,-0.40269399252460547,-0.27771352184803366,-1.5163628776655034,-0.2860619224474049,-0.09684545248397483,-1.578061306665194,-0.9654802273738523,0.46089285493240406,-1.8900115300672236,-0.6955120680293927,0.11058213236129982,-0.16049644135806485,-0.8796876032800638,-0.20920306565662,0.09232192270705247,-1.3274834017061883,-2.4976457924899877,-0.6972171093459252,0.7990995981116115,-2.3193282720567407,1.3467753916756402,-1.7299924958488957,0.3781310850290006,-0.5170520134347816,-1.016763912159122,0.0462919096614134,-0.9993215908249244,0.2056193068940394,-0.039306179057428,1.5073360401197577,-0.8216485454012332,0.9530664901706236,0.1373248425795739,0.46489815978529636,-0.8593927002541272,-0.9539517521165298,0.6169929420767073,-1.460983083707103,0.5502276009160083,-1.5289764358281708,-1.1375800757168424,-3.1582356287725,-1.4012427671157968,-2.4996071274224354,0.6656662206060737,-1.9887992545009727,-0.877244734263063,-1.1268128020593662,-0.6367406852982902,-0.5432271413235873,-0.29065313419476646,-1.8543648581302623,-2.73019631620917,-0.744540668975833,0.2104479965599152,-1.7218737499067749,-1.069520579935249,-0.3011146807545262,2.0400228267062968,-0.23450172623195792,-0.18564455651066303,0.4337518898027537,-0.9177678656153343
